"x1","x2","x3","x4","x5","x6","x7","x8","x9","x10","x11","x12","x13","x14","x15","x16","x17","x18","x19","x20","x21","x22","x23","x24","x25","x26","x27","x28","x29","x30","treatment_effect","y","assignment_vector","lr_estimations","rf_estimations","gbm_estimations"
0.0147566353502345,-0.314529614057555,0.855954743353024,-0.311157288790579,0.113388582920432,0.247100674457309,-0.182944964844998,0.543300157285262,0.599667331905544,-0.212792165246036,-0.691070208320751,0.180879282283862,0.00990262035248413,0.331638886727906,0.932568158089541,-0.947257665162691,1.09867827381639,-0.128661710655071,0.426613192655511,0.351951935054959,-0.20608970801709,-0.392574303282478,0.316476595862151,-0.0743196827005908,-1.28511247003306,-0.26686403873732,0.1187097306732,-0.309626333999204,0.70603571566595,0.0535563756364244,0,1.3447514566023,0,-1.19967697930857,-0.221277693817591,0.215830809802889
-0.132500448532181,1.55285214406702,0.801884976944811,0.688169816549181,0.893447808284799,-0.379357187412871,-0.235364013427184,-0.00699411581352104,-1.80854361909073,-0.36584943721456,1.711396547786,1.24212053541434,2.4505929074878,0.494497885644349,1.19375256438782,-0.666358818174403,0.744560736198167,-1.84113638183581,0.502904828395527,0.870837982659886,-0.939368882546407,-1.32403155893219,-0.494690752599793,-0.633783958498344,1.11946132499496,1.03173654351087,1.936599919413,-0.298308736642207,0.694020347760319,0.224407231851097,-0.00130644744419189,0.158943492371092,1,-0.230257360626529,0.550736724565744,0.44080579883701
-0.123058929906371,-0.923225637344373,0.231401041375906,1.9713298568526,1.45163106163291,-0.293586664626483,2.12314601553098,2.01512469593884,0.0108831099944893,-0.644526701671999,-2.17095559900337,-0.121658044400829,1.44082849017487,-1.03251046852252,0.746397220447144,-2.14703228047931,-0.251638377062497,-1.46364546925754,1.20740961147137,-0.536335830723653,0.187451968785748,-2.59676905676139,-1.44351173205301,-0.317337012343942,1.97676833025726,-0.149426128587564,1.43375522655913,-1.00140727811658,-0.627680888563782,-0.300836033431876,0.350686557863937,2.31101537705455,1,-0.788035483606256,-1.36946930663933,0.562668442963282
-0.177472389805956,3.77643389739005,0.943778915253392,1.04994258259106,2.29477681814861,-1.9837585415846,-0.661518874514616,0.457662730220824,-1.2586877636029,1.00826871412887,0.00271683475007941,1.45660789640289,0.184844268201654,-0.752542932050477,1.81901453826735,1.18636704065882,-0.163163030511741,1.09221309730234,0.228089841747279,0.672355177691007,-1.70030230152079,-0.795227528609793,-0.649428397316767,-0.154901332015385,0.710129189945707,-0.585333494895217,-0.377340587697575,0.96184845016858,0.438849090703431,0.662337483969488,0,0.377380740548959,1,1.01601105811092,-0.5824950684451,0.63086616262128
-1.83647987150537,0.0896454208983824,0.442480065454672,2.0393261241605,0.581924748155878,-1.55796986942051,-0.352209734341629,-0.469300555755038,-0.0865982847270988,0.534206721681121,0.261381336505734,0.369375347110307,1.03379962262851,0.752928156440998,1.11123084775173,0.906891411174954,0.587152770219388,0.474208003124566,2.0578356387248,-0.531875477814044,0.0895899725881004,2.3918046416446,-0.422726852367131,-2.08306087427697,-0.702573263468303,0.734300218251621,-0.692164957332387,1.76915325945882,-0.988321776535148,-1.62942836063362,0,0.892138246546437,0,-0.186418085136772,-0.841850094825469,0.479930802658779
-0.0572012087364129,-1.02794115189095,-0.194230408316248,-0.232299712881179,0.120124180913944,1.40796219793849,0.223581660684366,-1.49176791363244,-0.194819272066823,0.542427669866504,1.18552193716709,0.122098497284508,1.93518086115716,0.249022162523471,-1.58247020773377,-2.55998955387336,-0.202617904674656,-1.74673295202843,-0.387996894718907,0.509775612385018,-0.877265585552828,-2.1230167081241,-2.10811736866013,0.282924172904028,0.537259691291843,-0.17192664948622,1.96123085045736,-0.752729113770433,0.049784597437525,-0.881374256235018,0,-0.717397235251076,0,-2.06562941882536,-1.23047664464604,0.160798714373771
-0.0823544787314974,-0.240998310743552,-0.411839038444111,0.13967399599046,0.797405803191308,1.10931563705244,-2.11775512344728,0.301579579467598,0.554823710874418,-0.26717057391111,-0.886644596323137,0.905740837988691,-0.237143591102481,-0.0890482026106078,2.23775661513406,0.401280313897274,-0.698206072314788,0.878706907805591,0.0340914432923885,1.43666853252128,-0.303657200697682,0.568275220325413,0.470898570622546,0.883212138768198,-0.307953863116632,-0.209785924408102,0.742043970452923,0.478226104861224,0.677852048530491,1.01991081823288,0,-0.165275169504766,0,-0.845716032451763,-3.45979924865049,0.320988388479773
-0.0438270493181063,0.607038565619376,-1.77380730227418,0.179209646898997,-0.281161236406824,1.37789426442868,-0.941380779669508,-1.06673375394351,-0.363026549363919,0.767791377802576,1.33997463348975,1.93376331158042,1.4366782829447,-1.02981541079913,0.265431923733942,-0.544872650327564,0.712512959404311,-0.704373651783301,-0.616402976263294,0.911784450989088,-0.00522542724783076,-0.136534433935353,0.163269834671289,-0.410614220305684,-0.387875425245446,0.366651611843528,0.78758123885031,0.848356676756247,-0.207890533959817,-0.40429818921109,0,-0.169387298498256,0,0.452441960591269,-0.0182065833923527,0.459404628542615
-0.31443252858712,-1.39794484801407,0.149098995867204,-0.795275242801223,-0.381078143058234,-1.49865590798409,1.30565084957782,-1.10363132675153,-0.450344246105867,0.00856932587324972,-0.296884208689925,-1.4900411435544,1.08707820116547,-0.109306746009542,0.5256649467246,0.519253888343452,-0.68932538641416,-2.03121097010551,1.04891760256224,0.696507785956088,-0.431435363441751,-0.226534678539924,-0.246668227892441,-0.882350511026307,0.845782379093322,0.738784674394968,-0.207108955939142,0.00641793156002485,0.385122428018654,0.129590097449354,0,-0.703315295996769,0,-1.76295162102736,-1.17565109392302,0.149541643618664
-0.870958105027723,-1.29594455960727,1.22602608636141,0.586654858581885,0.205633366620679,-0.866041515824399,0.714524231991258,1.11178536651133,1.88155665436321,0.0294223327494375,0.376918295384065,0.00865700930658154,0.864016456876922,-0.74668471072771,1.04200351733424,-1.26014099473699,-0.545373703807016,-2.09094314647737,-0.560665593938164,-0.120565584028547,-1.82673907861619,-2.52014097553015,-1.88372735324713,0.906720297330843,1.83361854236398,-1.240588059282,0.208414532522994,-1.43836408693897,-0.981429990008572,1.52086872337902,0,-0.706177366696463,0,-1.09231533837704,-1.58415109192921,0.271240646573742
-0.0818556882162541,-1.43914136090186,-0.237184590250553,0.26395625562638,0.387411234583986,0.22016281160289,-0.216003429079925,0.390145891123718,-0.315365802774625,0.214299401813467,2.02733012185569,0.392652609263062,0.681835047850502,1.02471639320243,0.852818765249574,0.0650100951182073,-0.45373798820368,-0.274800746649862,1.01872985296244,1.23524889440915,0.0773964545430823,1.06557277913086,-0.743349081305132,0.405502905909559,-0.330947366415753,-0.791446922177628,1.16755576599843,0.0745385588723236,0.626170195437212,0.524781472296569,0,2.22850215309371,0,-0.833846188695444,-2.10163831399335,0.167634464820389
-1.43463174074402,-1.43478665335118,-1.11313718740992,0.0372866362442071,-0.282312249842384,-0.554499981108867,0.148199243598698,-2.21687210702803,-0.131110984407087,1.14543695675871,-1.39464930206481,-0.404169693780007,1.2262640101889,-0.828586908463192,-1.68526003551305,0.792539493905465,-0.711653955221932,-1.05803766966743,-0.401249405550914,-0.654052589616068,1.70736296290311,-0.757589487261276,1.19613850122505,0.987964182631478,0.888933242956703,1.12906228111861,0.94877616818452,0.912566510809179,-0.389417534970191,-3.07554433082743,0,-0.0247989003172627,0,-1.87865940448738,0.0251143543783939,0.157461574231979
0.317469120608995,-0.339666403914515,-0.819998535034913,-0.0179243205307956,0.0881167703379715,-0.804604583737558,0.418848318482824,0.313616192859563,-0.346386734920841,0.608567909724235,-0.626171455863879,0.443367063316869,-0.62838165514322,-0.548556790659281,-0.0324026077261734,0.80915899140823,0.387513438360127,0.510430412881161,2.4669012447913,0.0504081012526532,0.185856120913484,2.64586411955915,0.353021975728885,-0.891958119520242,0.0354501770783978,-0.363065433917517,-0.424786876936081,0.471202984911593,0.610274891029543,-0.986305003434549,0,1.9935090942053,0,-0.845049373992373,-1.12864418721339,0.291787477858269
1.22839222937969,-0.357858505620038,-0.452379873873539,-0.144083483301765,-0.858286743618835,0.368707797131445,0.790197802814101,0.322959017108026,-1.232311383487,-0.876865251601946,-0.311044008775052,-1.74390564275123,0.0269607495277225,1.52138795998112,-0.877045506226934,-0.775436048079991,-0.0275846800728957,-2.95875348525477,0.17949288712168,-1.07597978857703,-0.263514246537423,-1.63133777739651,0.133993561126112,-0.575573375690962,-1.42135259530053,1.1167453153651,-0.647517818804631,-0.954844001414931,0.874270169177722,-0.775543066625209,0,-0.277538022681253,0,-4.41757853836791,-1.55701207769398,0.0334688497283999
0.141943516650946,1.10193225101542,-1.22547414780002,-0.356223930949255,0.58063337972682,-0.170381950773059,0.030329799123089,0.28945432220193,0.261615441632706,-0.319663226883552,0.146022938313197,-1.89716214469523,-0.397096026274238,0.415027719924935,-0.799554345177372,-0.592350121779799,1.25176236791516,0.326077129161098,0.0632387587024398,-1.90013875484405,-0.0832727292076432,-0.446746434412925,0.0258231211638579,0.288040310200625,-0.659886622238084,-1.00872431038174,0.0114695393637435,0.0758525456291701,-0.489396113043881,0.490764589541175,0,0.139859476131501,0,-1.1360085920167,-1.11921899814354,0.131434227206695
0.965773728831342,0.769302932520522,0.67318255487849,-0.518756122827309,-0.0233887901736207,0.131667074285549,-0.0866810085942745,-1.26422456327826,0.725907117940284,-0.103880269197704,0.389383273947806,-0.0295779049154704,0.192382553053706,-0.614813717800306,-0.932344872587269,1.31437949806474,-1.23236460756757,-0.712225099702521,0.0260080254746298,1.54514421511697,0.0723452409304271,-0.181787989271103,0.425138892923911,0.522409033292648,0.836351001983073,0.626131357575943,-0.197547934858982,0.034478478955282,-1.16096283572963,-0.369299056674934,0.374090246814736,0.403947921916957,1,-0.0828258753911622,-0.675798285645481,0.411653953050119
0.573580094037461,1.44774553840108,-0.876031847500895,-1.13479462889601,0.474327059749406,0.161123817679139,-1.70597407306534,-0.779947912094894,0.844370744974591,-0.0667365719528633,0.322678191337773,-0.953954922948588,-0.0826470833779658,-0.530516047200167,1.88368210366478,-1.29641750647308,1.71452617636384,-0.92154569347497,-0.0921264900078682,-0.137715283779346,-0.686465006595587,1.05546143483448,0.0595101811468337,-2.17052984185501,-0.174020157761105,-0.473749787877497,1.03902204879675,1.50386981839111,-3.23297921519034,0.797589379380618,0,-0.211934807810432,0,-0.476556590399095,1.22497923586857,0.355768815871843
0.945440377531102,2.85040808423803,-0.81101579269122,-0.205687926569165,0.00157127507501911,-0.408485869354265,-0.0838152957656581,-1.29073330321794,0.571835030255518,-1.03598604691594,-0.66054966597998,-1.71241801503757,-2.40510811365534,0.540349917821715,-2.01018478631336,0.791732668926161,0.62853804222991,1.33977042659167,0.00896935600056928,-0.788316676912561,1.09110332023594,0.3128629562277,2.22024280987679,-0.734636396954436,-1.11209786149789,0.115111340858373,-1.05629851425102,-0.573953551454229,0.293572280352977,-0.55544032737729,0,1.00297280892135,0,-1.04066123928681,-0.478126312960364,0.441112671076908
-0.154695773226705,0.110468399010188,-0.474235948642083,0.787410773398464,1.2872097997138,-0.0147287568595304,2.1460467453145,-0.3959131451079,0.721519769862616,0.0140437101745655,-1.72117346272576,1.00707696905349,1.24408345811565,-2.08809149987295,0.199197311125786,-0.442380759776139,-0.116690995817546,0.085587066724431,0.128910545954051,2.08976113012223,0.349649417221645,0.475994767409186,-0.518119234363612,-1.11869684475367,0.483339048033385,-0.466187000009178,-0.517074828280683,1.37156666494122,1.08021195792172,1.09412693838003,0.00513594616373869,0.215010159513426,1,3.30905842474309,-1.41162600272264,0.962953575167953
-0.80960424632922,0.886875545614351,0.643034038454205,-0.936608050987564,-1.04166936108899,-1.8601907897772,-0.633893904012476,0.453463420531355,-0.797677931168553,-0.288915507940341,-0.244347488128597,0.414833417298417,0.59499721106766,-0.567817864469677,1.94140064735401,1.42275331197162,0.61305300536767,-0.0809967256517158,-0.0101091047689039,-0.438194538323883,-1.52318773954301,0.114152159174237,-1.14597762098327,-0.314010557489,0.536172757984342,1.03972537017562,-0.772847822790652,-0.293777320471715,1.24314316969567,0.248083916369754,0,0.406741926356348,0,-1.81633019102867,1.23131491256163,0.149660407460222
-1.29498746945379,-2.63976833605235,0.0274193949846135,-0.072376304378727,-1.24729139155936,1.62840026968658,-0.822341889987422,0.0179765606064511,1.69866550925066,-1.11677414834257,0.856521132351104,0.416837317557838,-0.0303346804382342,2.43179379254386,-0.598945190548806,0.166280681752385,-1.14458814323222,0.125058326558172,-0.500120582027992,-0.410487966795711,0.562679817256346,0.480142030648892,-0.0294222673399735,1.38744562134367,-1.90892563642124,-0.874841357586397,0.655868356514357,0.238385700492385,-0.859894043015943,-0.776592220986708,0,-0.867309693545093,0,-1.8805302565065,-1.32157591126334,0.135478289324271
1.5836981378135,-1.05040543509213,1.24933871584809,-0.689705911056026,-0.960052244756032,2.61981834290708,-0.0385755605646504,0.364345551052213,-0.173394595933685,1.76677974605317,1.70481841756253,-0.595147459629904,0.123799155305086,0.428402141311258,-0.264451922722463,-0.865467164820852,-2.13238567548926,-1.77844239739998,-0.0137252960091566,0.631657478469141,-1.69176282940212,-1.45212222174682,0.140097337954014,2.05577238925372,-0.0747972596444754,-0.867450249169919,-0.579883268082279,-1.30481297681406,1.04633480924409,0.401414040371815,0,1.67689101035605,0,-3.12828397092646,-2.67894100921312,0.0821120197814086
0.308267870736911,-2.70265244236765,-0.0146687867394253,-1.11689889771684,-1.64403037154219,0.592435993035412,1.39740553350219,0.0252351036868526,-0.660886406531933,-2.72646685829336,0.465060911922129,-1.53835126628512,-0.774518654918005,1.22509995687186,-1.67107994251396,-0.757979834337181,0.509301099138452,-2.71717174123199,-1.0342936308489,-1.23329454726835,-0.063370601904941,-1.78660598486347,-0.740613757556934,0.194111007381635,-0.785707221953758,1.08265239385132,0.447727381157747,-1.890412634848,0.519139476531755,1.13169446130723,0,1.05186602742975,0,-4.76857413741532,0.844938323227065,0.0501121493127207
-0.572381272611916,0.400559538819052,-0.38593232702191,-0.483734771422065,0.513284335448228,-1.06532258557674,1.33112010673083,1.58579959831738,-0.679644708907474,-1.13530413809084,-1.45962203701284,-0.0742358189527504,-0.4274967978012,-0.88361866007624,1.76098902899786,-0.379784607948589,-0.167555619670334,-0.405265798790328,0.618493476747121,0.68185330282387,-0.610513731097979,-0.643843488021356,-0.325947156790005,-0.145087776150064,0.3423258024694,-1.10910221951571,1.46865450038259,0.50978334660873,0.939274236608351,2.04092032572496,0,-0.581666405954751,1,-0.286715539668121,1.2737408817928,0.472405238893161
-0.470088151983272,-0.846869563571619,1.38124086980749,0.632103518862094,0.567334311888504,-0.0410379694952281,2.28358237337374,1.92850856025448,0.307016489596712,1.12998725244139,-1.12834377184163,0.0885662475003888,0.713017608306671,-0.899813666892106,-1.09606081558856,0.128889570980269,-2.39353180340309,0.0681930166905849,1.41672084854855,0.875480278347067,0.505213195612014,0.110842981988909,-1.58840501236019,-0.130089501441952,2.31752147060802,0.797121022083444,1.90013058955245,0.0984625876384862,-2.09119022602439,-0.996515727893911,0.239661551773605,1.13217944211708,1,0.220525969052165,-0.758357128080047,0.682013417298593
1.92271378567385,-0.917499828821523,0.763693755312857,-1.59792811858681,-0.805530169266198,0.0525764617044827,-1.21072348010221,0.198944135616478,0.803198598794352,-1.16425024881318,0.616366999077763,-1.58497298155525,0.129983580209897,2.49200803938029,0.732926088400121,-0.397025399609871,1.69446067434921,0.557202719579015,-0.953860173443838,1.24960395606715,-0.166030411857731,0.804934050049245,0.817183012257761,0.177816051024453,-0.74217524865542,-1.31373226065016,0.174480293411165,0.525701224794032,0.529859215032416,0.668510267972039,0,0.456759565503282,0,-1.1388013872763,-2.54860020364772,0.221799062330525
-0.523646912099286,-0.970714403692842,-2.20695791192737,0.116008461693462,-0.863842318501283,1.03829630964702,-1.06787963430378,-1.1861180544733,-0.174682217974419,-0.703626632140735,0.636531176015749,-0.0984430467657477,-1.44728073903509,0.860964662445401,-0.722002936044574,0.720934573582576,-0.871714318408428,0.661186702029952,-1.19634055977204,-0.945263387227203,1.54726993347498,0.420424753491449,0.380372705569759,0.914885969931991,-1.23985420937749,0.0755231658770335,-0.575313636381016,-0.0464611209457441,0.0885606639103981,-0.221043231233216,0,-0.703101224362734,0,-2.5238821852715,-0.238971567709033,0.0905914069290673
-0.204141268638534,-0.544515399190117,-1.36833107820103,-1.35637060026589,-0.411900870862754,1.65895438347403,-0.77886505794192,0.605912225556303,-0.679007068119069,2.28097951339214,0.297130148020344,-0.549352459794579,0.26159203283578,0.131034297098506,0.713182211678315,-0.733780840670395,-1.38846932883311,0.940265631509522,-0.640563954430586,-1.22893479425855,1.08240191295843,-0.419278253397398,1.79838373770899,1.68499971039647,0.450394541350951,-0.68446879763149,0.505284238058224,0.300058010753066,1.30980206540521,-0.367383176216709,0,0.718010862964246,0,-1.18930307905891,-0.766241902228649,0.189881522841449
-1.68691496493641,0.891443067699527,0.810133396749244,-0.244642133585617,0.317834010097495,0.790513119304104,-1.37201480177874,-1.46193704885262,-0.187549601466593,0.089070113608699,1.83084247678893,2.08313695665491,1.29328294852758,0.428415134102277,0.653542204343288,-0.773758728238267,-0.0520725490318261,-0.162646262064848,0.746326173246613,2.10910452889942,-1.76429399131527,-0.191964735142622,-1.50639530559673,-0.216869994556859,-0.262987778906739,-0.0862822054735038,2.31067935028384,0.446317691974547,0.0703051015045744,0.373595978725991,0.331329138405847,1.03338755453607,1,-0.187121690708807,-1.13095236619115,0.511069131988427
1.4626797313498,-2.23881658537485,-0.604876261224955,-0.559967396810365,-1.71539338461161,-0.0997923626714036,0.481876207938541,1.15474071385903,0.694559716927404,-0.602976841278688,-0.959171674546317,-1.5936288882192,0.924355707497693,1.25435915149492,0.884378533675988,-0.399698727935959,1.49432595992925,0.537440911790662,-1.05800944123086,-0.900144552548729,1.1143327459832,0.292942190491827,2.38959629016256,0.183570964194746,-0.0484607361780995,-0.040346572286223,-0.370651965752477,-0.0136961568273072,1.33011771373924,-0.622735092843258,0,0.337866297474152,0,-1.09362089398948,-1.92921887627832,0.19240673971923
-0.768595053535579,1.2989428433455,-0.576523251314863,0.519242522885103,0.73362011768661,0.432277939665064,-1.0426248652656,-2.18251552148088,-0.116531952670461,-0.124021664811838,1.15675827725632,0.0772613653966175,-0.62903342528858,-0.704251489444044,0.287858028544847,0.333890947017276,0.12689987596118,-0.460284844539738,-0.906766975179642,0.263151050711769,0.0884270852381435,0.0152923285244371,0.749957299063189,0.23507699525451,-1.29136335345284,0.39506637003248,-0.710825992364947,0.273286221710862,-0.15933027458818,1.51176398521342,0,2.84533482497971,0,-0.497770031259547,-0.420100292063472,0.290502490508823
-0.17976625608428,-0.330238898301695,0.349463534640691,1.70183725815188,0.520771265064176,1.94213676922564,-0.899997815735963,0.692555410839326,1.29511077101111,1.9922100645846,0.284729435437804,0.405452941111239,0.00108874613664467,0.277661760622673,-0.41657240416179,-0.123570599932869,-0.819016024962243,0.848934799573654,1.66015082589237,-0.42883000641626,-0.0598578458068001,1.2345093377863,-0.0484456618995551,0.275500839395763,-0.108450778634675,-0.774952051418818,-1.09877859196407,0.322572470493349,-0.394797724535097,-1.55851624070652,0,1.09429533318565,0,-0.699470425800614,-0.558298477750043,0.357881958239118
-1.47939600323074,0.60485142502703,0.150884553577276,0.159283826750618,1.33661066329089,0.645385878893027,0.497811237065379,-0.0761325716750976,1.06543100511494,-0.0491172816562225,0.0716852070847259,1.36799451871756,1.32199252165633,0.809797374670676,0.830208569427294,-1.3942259130304,-0.0382376483107333,2.70286848639418,1.44244724722643,1.53397227139627,-0.0384824907612094,1.23485023463378,0.08689855369794,-1.67611949019754,-0.656272848322374,-1.63678843722572,1.2959215567192,1.44194547882833,1.77025883586549,0.579646150466846,0,1.37854146752835,1,3.55309908933761,-1.64337510497185,0.939344092209477
-0.13797671886944,1.13621427054913,-0.79826735249661,-0.274452112310684,1.95094068042007,-0.767755394855613,-2.26223494221423,0.217120091800663,0.163173136072165,0.769621456665603,-0.0292080607708006,0.923468434913938,1.77755883800704,-1.00865971970343,2.70886340180778,0.715498056457019,0.90487886801419,-0.151157364048864,0.251892966328409,0.932213485313892,-0.440589470346209,2.12834322811751,-1.07428838684836,0.268793098638856,1.53265870171379,-0.830502241383789,-0.301012575923892,2.45886167064209,-0.416283041838526,1.18107623317734,0.392474680747308,0.274560594103982,1,1.89761500661327,-1.28541050519718,0.871367718805726
-0.364078156664398,1.67229110923716,-1.76111014520551,1.22701617985866,0.250962165330545,1.5581746898707,-1.23438733827461,0.906790300805422,-0.222329985338594,0.830484060183383,-0.488642789253908,0.968280618575603,-0.263436891807091,-0.82994336281212,-0.457292667674557,-0.192126674610731,-0.0901712497874061,2.51415311266516,1.34980765143056,-0.770185283278278,1.36511432757314,0.88027209300791,0.0134080822555674,0.248735226046959,0.436779868780528,-0.664958183915393,0.760085854017626,1.03141772797358,-0.771743230514957,-2.12255227417033,-0.016657008464905,0.17515641105497,1,0.152045218371514,0.390203451964844,0.67266375358618
-0.918335098984387,-0.493546462397948,2.00394723504263,0.183406110405835,0.0108607497364326,-0.415059004604852,2.18402975827752,0.618121713878941,1.81573907502052,0.325858897796155,-0.425729299164402,-0.778305946867824,0.270057224172095,-0.107855651193248,0.0223220463413932,-0.587735328643063,-1.36198884299485,-0.62772371437364,1.30372978613969,0.182097774644059,0.190418759132306,-1.14299687592658,0.136122560705177,-1.46921782793315,-0.0727555816236122,0.621883422906397,-0.774838607460215,-1.43734903871745,0.509089398378857,-0.100474802198239,0,-0.347184895024207,0,-0.0728660682175619,-1.07097812327861,0.483310441797031
0.588375193885525,1.26885571613682,-0.510053613152647,-0.136689196658648,-0.74160693975759,0.576969577457012,-1.66318639774809,-0.547398053743649,-0.207390140017087,1.19277090709591,1.37019797657268,-0.688203286287558,-0.361568268754609,-0.925411688764269,1.35082175896811,-1.35072396731277,0.337103748169266,-2.96948052516648,1.73584852229526,1.04241980035414,-0.392021483136604,-0.6124812283295,-0.303786087233815,-0.851871111777036,-0.686789310932484,0.21306620258382,0.602552013942733,-0.307097571312562,-2.2183118552058,-1.11301095800345,0,-0.10368642251515,0,-3.36419817027603,-1.77224723673504,0.0415411676694413
1.56040063022448,-0.793672124777799,-0.0476490723213862,0.224516850369888,-0.209429220825021,0.672282974884346,0.751723254676654,2.0155187773629,-0.553936165337549,1.19964340672944,0.477334891100432,-0.168477934613348,-1.48368470376265,0.00308223075341583,-0.748791736696692,-0.224590207746606,-0.83336882668192,2.38905391933632,-0.319120124851191,0.332190884594867,0.485055107450442,-0.533655786906913,0.523532567476825,1.86118344711387,-0.533876642142469,-1.46190407781156,1.64019149057352,-0.947519393169393,0.318265222903874,-0.472098510628545,0,-0.904293471446654,0,-1.8256037346936,0.779783813671923,0.247098043885089
-0.788445368525457,0.484850992702444,-0.569280766224822,1.19931041138733,-0.268536509335591,0.82388216969396,-0.0223620851399308,-1.03026078517089,1.19263086552784,-0.213437182780266,-0.648930909179888,0.205882864827395,-0.695077489567417,-0.144098640206576,-0.543404826932372,0.143818913678792,-0.0666963744187361,-0.211930386682528,0.6368442816329,0.766314084590758,0.935401147412602,0.221725795471283,1.82407894945069,-0.914134238830232,-1.35956763267861,-0.137201063867056,-0.657298130088669,0.445425392290818,1.30130312802923,-0.938036560225565,0.481709799369168,1.97581297108569,1,-0.267399352584989,-0.578339587030369,0.565209711345461
-0.421699327969705,-0.117106516923375,-2.32680133741942,0.2706040683162,-0.0560367057338083,0.871856501927169,0.815539473766478,0.91907619165153,0.100748520534612,0.887986419956675,-0.996036748124902,0.674812054784495,1.99575968071103,-1.57258681999086,0.413437115765659,-0.695187725795527,0.443406947493692,1.63177883145532,-0.200884999048581,0.0321812574504569,2.32017679609948,1.22605168692071,-0.10898775110411,0.747925173936536,2.23367505610675,-0.348437208434189,1.3683751263119,1.68734988930223,-1.84319741340833,-0.407979682522447,0.279952385509569,0.710229778942093,1,3.19256987736099,1.18328772350178,0.958791994841126
-1.6054744640376,1.9590198086695,1.03034816219228,0.374032709523197,0.347561925606732,-0.577010170944622,0.216076482426027,1.3300367038961,-0.113067466887332,1.04790171852042,0.819515590659466,1.01547027613917,-0.949153860573021,-1.22526534723498,1.20208338525643,0.675441353086361,-1.87403192143796,0.451493507152337,-0.744343299765451,-0.231380795498113,-0.71231206511302,-0.623879618445959,-0.796376108223665,0.552356549146875,0.493031442673667,0.525285801661069,-0.309256031934703,-0.667352179147679,-0.863579647066847,2.00740972233026,0,1.15880951016659,1,0.0924424019222975,0.830890196356059,0.636498808557469
0.962284082711209,-1.57624531435839,0.0805313930482362,-0.772549378239486,-1.32133853864872,1.13544243499265,0.364571028269327,0.734981225909998,1.49899792368606,-0.995401276189997,-0.327520967454223,-0.768518751637543,-0.0133815904945222,0.530474701238651,0.674776175956305,-0.947563671446194,-0.406664831808677,-0.41016342726658,-0.85055684525331,0.0635389166532101,-0.334898045593295,-0.35844468826583,0.893559655345036,-0.421057103354654,-0.172560175815805,-0.510329616688942,-0.86389785314633,-0.859903445580229,1.939022457553,0.980622887540423,0,-0.219358394988229,0,-1.16553796482339,-0.716795869970416,0.248006773380878
-1.12998598566586,-1.02830999923007,0.931053311620709,0.612276693778543,-0.240418115625457,-0.950817749778565,0.703942351138108,-0.652898992804346,-1.44960122226327,-0.625156392841487,0.347829742901187,0.0473662660196854,0.558269747275349,1.17482016722194,-0.732370355590396,0.978343334467941,-0.607859293073786,-1.17074496938048,1.35631017634879,-0.169800660067778,-0.0402568081767024,-0.559217818822212,-1.45590311152138,-0.66355198130965,0.0115885054797668,2.56790510207041,-0.049664035872862,-1.53104375113169,0.836871235678239,-0.966264417610885,0,-0.135058823507392,0,-3.53052550149335,-1.65212287475341,0.0507725265841678
-0.214146923848405,-1.81163181370168,0.260308175216899,-0.408433319891905,-1.41593211243439,0.770680134347697,-0.103098400925143,-1.61604318786091,-0.854339366336728,-1.59674197933215,0.973981012128429,-0.131932554218748,-0.0363395542745522,1.40890048843447,-0.104616337525494,-0.654004593313717,-0.280390497788153,-0.727115695938489,-0.138157444096911,-0.0675183660633627,-0.511124372515651,-0.0662872004384365,-1.24740870987225,1.19560071641592,0.117015958373261,-0.392692335217592,-0.831650185557991,-1.30336972396198,1.37582014037989,0.751303661931887,0,-1.10578661576707,0,-3.13929108350738,0.175608607184921,0.0609510781978712
-0.511832180647914,-1.26572593857933,-0.815927133920166,-0.828604489536832,0.246524991912657,-0.167598224177214,-0.256924572240718,-0.754961041813874,2.09719797015223,0.94590678141572,0.210680137711911,-0.587245791919548,1.39933967731587,-1.3757890493573,0.906110612586005,0.25326960734084,-0.135153247517295,0.586002900888982,-1.92024754168681,-0.124850676178233,1.2156836986101,-0.194146082983855,3.29581501069885,-0.72862051833476,2.19264569011157,0.535126445061807,1.51038573385844,0.637405956352736,0.128915385742799,0.560020053946231,0,0.621379653139236,0,1.92766927393948,-1.44962520302148,0.642396854537225
0.103338498390394,0.0455411382196599,-0.202051954884115,1.06694835153315,2.06774423704657,1.42177240451759,0.621074798527207,1.62856193930971,0.946888756302304,0.73319952095897,0.649720214519682,0.585173215060206,-0.116752188922277,-1.30304600663226,-0.201874177121701,-2.02643406639094,0.326638625908898,0.481465283060828,0.284244052300165,-1.26516860266022,0.91816809423591,0.0127907237138098,-0.45229863845996,-1.2545824237902,0.58643417057673,-0.214462857808278,0.133293042469125,-0.36807800160532,-1.71173614695021,1.29199971511739,0.341809053925859,-0.272754737116064,1,1.40476347091211,-2.43581996075062,0.751591156826711
1.15771911290978,-0.490650138925004,-1.41390872086934,0.309295992555669,0.0770981020638953,0.920119283697155,-0.955072669470093,-0.127341231260575,0.484874320795952,1.32034771584077,0.113511875895061,-0.0547190283710365,-0.302175593351084,-0.907836903310599,0.448461183080317,0.219666258388195,-0.865596163673808,-0.360627898017664,-1.45476731553031,-0.271373470565308,1.44860676709817,-0.0461920506236587,2.76828437311332,0.443710133783821,-0.289687714124038,0.427352050327309,-0.137035956479561,0.220950320661058,0.326605698093016,-0.686237726813402,0,0.497789269429471,1,-1.08590704436784,-2.91078395623466,0.316133882264407
1.29335702719118,-0.447793024326231,1.02618838542811,1.07496359836807,0.702662099408949,-1.83165953959883,0.757715322457092,0.498921842094252,0.35842171113695,-0.291322898049183,0.341903791211764,-0.171176982706731,3.63131956089239,0.980668887543325,1.25881862978826,0.271889744118629,1.69273661636841,-0.727331092336569,1.30144533470018,0.862225808626522,0.397397787357957,2.09744483296708,-0.847962696484132,-2.82397713026322,2.10262690714893,1.10801411803732,-1.24036388936908,1.47178518159016,-0.0527725801870227,-1.10577360788045,0.175270289308044,1.36805925392831,1,2.31148776887611,-1.51200361758039,0.934472259113311
0.783092489957675,0.431377019316374,1.46571867532867,0.0442647352282538,-0.612002657023595,-0.742323793352112,0.998905358561448,0.190403554438787,0.478089575590364,0.303862155638198,0.48310227560074,-1.34947717996514,-0.0268788087765367,1.12641091555306,-1.1274782495512,0.488276957412087,-0.097550250266343,1.06175369628727,-0.362066416125451,-0.950173598956564,1.27601052736145,0.501760722677053,1.96387371746849,-0.454490788736076,1.15598866222171,-0.0200471366066664,-0.885235579140376,-0.124022889256482,-0.0079639092021015,-1.22169570354813,0,0.0535888033805245,0,0.240914652613926,-0.56892428449846,0.417526662244909
-0.443350919011982,-1.01500006753931,-0.28342143129695,0.332318787615277,-0.289842077196003,0.504934913990984,-0.773268764478987,0.455740715197473,1.2680756771128,1.52299975401071,0.170308034421416,-0.518888944565473,-0.458074910003445,-0.0189259810902368,1.55310764810025,-0.361340907735947,-1.01363889103088,1.55292079579023,0.0605278167863401,-0.244862325816034,1.26517049838091,0.797557430499405,1.46500526929895,-0.431478981184695,-0.796515558633657,-0.726166508440976,-0.181488097138126,0.223683372267135,0.908241122930911,-0.916598740977793,0,-0.518567151968383,0,-0.884700431980508,-0.687742403443104,0.345398418554277
0.16692848599936,-0.30875733691294,-0.273003121406253,0.65727778616718,1.74761842639728,0.138528822422166,0.543390606034745,-0.359393563863203,0.642485600381426,-0.922764339541088,-1.72104271761652,0.436312380620797,0.769640569388015,0.319189262896507,0.352701660229177,-0.466385332086828,-1.95887209374899,-0.017653657370263,-0.0920478795206642,0.938758773580481,0.207151537861635,-0.501829361454396,-0.911145210712019,0.316253685100324,0.323268274902058,-0.0175971424573991,-0.464169489963753,0.38496542738093,-0.732886054058485,0.853319934581443,0.477600865005038,0.754414962315808,1,0.726644962952232,-1.90227585210392,0.700366571126204
-0.243081651710904,-1.1782856981487,0.464183331718529,1.20080993849948,-0.918881892542029,-0.117195531339056,-0.162769802808474,1.33443161884389,-1.23107936804227,-0.189998564654043,-1.40423553316362,-0.509808613010828,0.585737799251369,1.81717088065231,0.335122670795672,0.785838531630485,-0.741000171058333,0.42896151272749,1.04864303506313,-0.272450535057507,0.531812302873846,0.282486821912267,-1.29629751630546,1.35506139008866,-0.690364174171958,0.757165702263842,-1.25189263738769,0.0117123170022477,1.11424676161795,-1.98019041528681,0,1.30186065175294,0,-3.25143955087592,-1.45123569947873,0.0306143125573699
-0.471599824429349,-0.589012430153793,1.81617645676581,0.634095085540691,-0.199729379273338,-0.51421199076755,1.13869139369506,0.437601748183839,0.346573262189655,0.81103438440072,2.21680592929525,0.816341320634658,2.19352942842565,0.314522210192921,-0.476110210482688,-0.115746342416236,-0.299086314494864,-1.74460933692626,0.196185671900509,0.951463569654371,-1.11047176474182,-1.40885942184079,-0.578924792764321,-0.189689318138194,1.33527093177325,0.0627516417086556,0.0656376325352188,-1.06139346225375,1.55465578522598,0.0255510857541891,0.111144142746186,2.50150490053235,1,0.138127529772177,0.168281240616159,0.661272050016028
-0.826894076163432,0.0492164471730819,0.94012585506821,-0.61228405663572,0.268653366437097,0.0740570113631351,-0.61725307765538,0.424784699220567,2.42890900413731,-1.03904263132803,-0.317060446203971,-0.263887155613551,-0.826251784491753,0.154737868399518,1.04086014957828,-1.11957146113274,-0.799282406026625,-0.855732420119611,1.19527983712109,0.495155122700213,-0.864372566249895,-1.07154603083839,-1.13641859290051,-1.563149830871,0.0825564207687222,-0.458889377423685,1.03334670327877,-1.21762844536784,-1.19900984099312,0.423859409730616,0.358375167726097,-3.30312186752945,1,-1.73161272103029,-0.919039061180064,0.171924873637614
-1.62941642118819,-0.676933208899968,-0.584998176568951,2.09324723281862,-0.526873655239629,-1.24909242123069,0.596716849626666,-0.872524285710149,-1.69423109551884,-1.81220935056192,-1.04712754519391,0.580629757778606,-0.7458592459237,0.418135712738873,0.492797292712011,0.712534464148915,0.34073203373813,1.59222497210341,1.35041546308454,0.424791948711185,0.220778494874667,1.20650151756492,0.170358761342042,0.0314055160760314,-0.851639292456041,-0.35928742679279,1.33625486070244,0.836866649286182,0.0618986247017631,-0.637184455838813,0,1.24170130421603,0,-1.69723197409259,-1.37653422576872,0.154688961125059
-0.0763545189276561,0.359299979544479,0.480375057973422,-0.482219643261899,0.617241754627109,-0.562029746317002,0.975173277238766,1.0714050080652,-0.52402214942352,0.176529721994082,-1.16006533431147,-0.193508661100262,2.01015154983764,-0.184661774944951,0.559087870064569,0.285834681375878,-0.244071580248854,-0.989268906676723,-0.466030445856583,0.247954396585164,-0.523744519853697,-0.19889634877429,-1.9355823670268,0.127814064140353,0.308047555776203,1.41715336037956,-0.678051101550377,0.63827119503428,0.876173252484085,0.761441114426047,0,1.3944111280099,0,0.0529927945120435,0.226018204983469,0.345774091041626
0.873068146270789,2.13346315286262,0.741675423779858,0.395031994425712,-0.198371365621913,0.64122907928679,-1.65336389789331,-1.7705246567937,-0.0600845830448623,-0.0344531082798739,1.71748049302058,-0.526176409198095,-0.623301241873729,1.20511732100738,-0.893923752306378,2.09623829436136,-0.0787515720997874,1.5096794509733,-1.96328314792547,-0.38246456660385,0.273971680363635,1.86365843368913,0.877654426826974,0.799329813297944,-1.15250054432203,0.82499873810299,-2.77267563779781,0.508963227259268,-0.0333444762374328,0.280546529514853,0,1.36887619320311,0,-0.136260627723948,-0.823201440179092,0.243071468286817
1.3743019577457,-0.203076304568286,-1.60416398060335,0.100566554002011,-0.158301502017494,2.85094621124311,-0.418591389663034,-0.162033525146065,0.841760272687793,2.13800440354801,0.204420026867225,0.0504633451456697,-0.622674908002515,-1.72572153069579,-1.21790751400993,-1.37791199605777,-1.25167312414349,-2.20603848822318,1.88484647439606,-0.170074543757015,1.05358557456161,0.692347189495329,1.3782763911702,0.695713524053283,2.28355996835415,-1.85416806506127,-0.0633503497219625,0.0177866882341333,-1.33538183488584,-1.6807716677312,0,2.88415988746263,0,-1.09352618666455,0.236574898125069,0.0946536594028077
1.07344177754445,2.25385408402236,0.838338506640938,-0.426257413972903,1.05388627476984,-0.465269869186481,-1.19314513796586,0.904743049283149,0.440717735591176,-0.00427229768764526,-0.361723937639089,0.544119489119221,-0.34311430150195,-0.0277732204773392,1.12924164574051,0.747256694375258,0.914947600305134,2.82446865807785,-1.54290828086907,-0.370774340946452,-0.270182599845905,0.592978144865893,0.495483235984817,-0.530062301106632,0.298239080779489,0.174858720498536,-0.869316360988638,0.32815491208989,0.377572748479809,0.939013293435215,0.505281014829792,0.719630114774426,1,1.20066907852107,-0.0511791047685917,0.75611743162119
-0.558741932462005,0.643034327264621,-1.09229634226961,-0.715582601539592,0.287139532282415,0.02161523207534,-1.66365284996984,-0.926099410813317,-0.607331023091792,0.413872519076447,0.928198133178033,0.339471515968113,-0.921411572295769,-0.0426118325296345,1.91979879529561,-0.557628781036132,0.894414067832106,0.0993394594260078,0.831549597545136,-0.217399196529079,-0.643241494766824,1.38918879297256,0.272218694579507,0.3888574733955,-0.678931551915206,-0.390922462386818,-0.673933520630027,-0.606765821218705,1.42631892186418,1.82381093365012,0,0.382431082843332,0,-1.76219697418086,-0.632444086267528,0.161421283304192
1.09317546034239,-0.417557541886517,0.0372387006429889,-1.25404680499274,-0.968810505656194,-0.0195827285272893,0.0325733283309384,-0.580583462543412,0.126655897499505,0.575226483653476,-0.179680553455717,-0.48550127447781,0.784450824780261,-0.877814287370024,0.57870864914335,-0.8949568646074,0.341868006133951,-1.79858567192467,-0.589464539176392,0.742252171841824,-0.684606429977172,-0.0499681600850612,-0.410907568462592,-0.324704070726336,0.702129187597658,-0.447231502697472,-0.243047585598777,0.124479291821501,-0.504979769500213,-0.119169846572158,-0.0995842297103391,-0.788647418750245,1,-1.36242052122375,-0.780202636184115,0.340891434512799
1.18223578464839,0.974339002266623,-0.54130962536292,0.296016282628332,-0.118375903204828,1.64221430420287,0.243194407023615,0.929898465817633,1.55869994250622,2.09594897546961,0.126134643097085,-1.01278063276583,0.188823058539343,-1.73651031614147,-1.00118497958279,-0.952454906150005,-0.153223276256831,0.39220502984024,-1.13053390073243,-1.37733879353228,0.782119910417871,-0.717607362076594,2.12387181413706,0.25245400054519,2.27437936204782,-1.42611380945118,-0.227793417485357,0.256189074397067,0.125479726292097,-0.890293973766464,0,-0.158266683880513,0,0.981514470745013,-1.69160851079934,0.552873126508225
-0.14162523936125,-0.0939671988107782,-0.395659831760229,-2.08935514243976,-1.88817978079865,-1.26526917625115,-3.47414664101226,-1.98861180936599,0.534009600004906,0.45470085051729,0.335875666440926,-0.529250518448695,-1.18708880150481,0.270742894902006,2.2363645540096,1.81919841370819,0.915689641610554,-0.454131516316149,-0.93601928835908,-0.755863084287559,-0.832537177891406,1.7123663307971,2.39694717704425,1.01100952370008,-1.00247157667379,0.0497656956476194,-2.16395632708206,0.064747363278597,0.662817385628318,0.0382812898611102,0,0.689542237253777,0,-3.67034563346769,1.06492102832611,0.0607382186018774
-0.741650039112674,-2.37674159596093,-0.478684534252837,0.110099770563266,-1.13721876279582,-0.54591044627424,1.25858643146941,-0.547884251443889,1.15420128671011,-2.00701713698834,-1.42116930941836,-0.615311067217299,-0.275870324909412,0.760858464076892,-0.910516348560428,0.898155406610904,0.378442257936359,1.8066612762212,-0.724123852406891,-0.443590075349732,2.25364727750542,1.57445664644345,1.36112916783629,0.20697883603413,0.82890880649337,0.234132235192246,-1.01754334331855,-0.123769989667678,1.56375038041171,0.264051515599454,0,0.72276057160339,0,0.423886945340944,-0.625486278968307,0.372887883590335
-0.548314513605451,1.22733646758444,-2.44881521324599,-0.585638399341971,1.23515227516969,-0.577505813792416,-2.24428273941961,0.331726913178224,-1.08413408283308,-3.06825686972325,1.5445179302812,-0.670680985514053,-2.47179444821143,1.56148876381071,1.79590296806889,-1.12608405754426,1.73193766751927,-1.4670261101029,-2.3669224025975,-2.81676490463888,-2.5269481490143,-3.04687143752733,-0.583206202672365,1.00367877848229,-2.92454699345661,-0.664207743838127,0.9669810647081,-1.75542269117024,-0.578643825719279,4.89190942494612,0,-0.86642240304886,0,-4.87250303828546,-1.98235329770866,0.0236510804916091
0.145028541460969,-0.522225647440793,-1.347502450427,0.792531943360531,0.651039323907027,-1.17784820836847,0.770848856810474,0.854700697005383,-1.47900507583634,-1.44784100807362,-2.15267620490051,0.208569819892969,0.0607130864965774,0.279171322974502,-0.800731856752498,1.80799492656832,-0.381780098679934,-1.56899329382675,-0.155653482920584,-0.710887370931469,-0.295769811919936,0.292197499439208,-2.11725033265686,2.76209642321805,0.825266887208845,0.807097240315896,-1.8626329739853,-0.272495250411379,-0.172075098003398,1.33111575007167,0,1.25893357764248,0,-2.09837272924654,-0.0640938980638494,0.0945546325172683
1.35894804953461,0.595285506615222,2.06167468917246,0.920906799553838,-0.89827903697979,-1.12572241830592,0.253777071159285,1.84677682715769,0.894828646225492,-0.658620940821824,0.664664124940216,-0.194710695565098,0.714414040674657,0.541681531381595,0.779598519908368,-0.489902881936358,1.33671192268269,-2.84035761595128,0.144215867204913,0.322188473630786,-0.831898669403767,-1.45327349326328,-0.855185499583826,-1.58254225459113,-0.708689843892054,1.09099537797683,-1.64902404545679,-1.29300395778614,-0.817305207213215,-0.719748328284359,0,0.138549449140409,0,-1.91102112305851,1.16789183953449,0.167977220666702
1.10088951574648,1.94530466391974,-1.24802531859711,0.51539379197331,0.684031217117857,1.18709227115992,-0.324164429178954,1.84879902711383,-0.508084558324143,1.22361860068409,-0.8541114324325,-0.273318141089602,-1.11292372736708,-1.14577624180101,1.15660258949171,0.0750244101726046,-1.96256090050546,0.51665780244813,0.147518742925764,-1.28195734031116,0.646305049063599,-0.565121649522545,0.675326179725835,0.687311883299231,-0.110558920896254,-0.757950023541338,-1.59951699862552,-0.0308068398380603,1.13371580036593,-0.125508537725448,0,0.622799227844512,0,-0.997641233063803,0.685583512777163,0.163522204092058
0.642116511026945,1.64114079435618,-0.540923888163921,-0.69497119896906,0.176064401899448,-0.264527481622741,0.449559349878992,0.395045657426564,0.224414595602463,-0.133674787478903,0.103137290466808,-0.722643679736304,-0.966180464077998,0.0975578078728384,-1.33588200922413,1.42983349787937,-0.45261605992407,2.15073303530625,-1.83100857121402,-1.06531647663891,1.76512099466125,1.27171150294326,0.979995791449193,0.218849628992898,-0.236113147879517,0.800522620311813,-1.17496705369,0.454984077894492,-0.807337865286735,0.752027940602316,0,-0.891539522237092,0,1.27749132521447,-2.40710304035243,0.531702971032995
-0.695972057840986,-0.882557436265899,-0.0880380666974255,0.156853914309737,0.696784729330231,0.75214654490635,0.555406128903907,-0.811158566365008,-0.609821860461767,1.48977723339676,-0.259092859296498,0.508528770707389,3.40248779445415,0.787999135888536,-0.789465014391481,-0.567606572048537,0.202137514101632,0.622120621418712,-0.368708288976582,-0.235777614117892,0.643963008237235,0.828507270273228,-2.00107517771928,-0.246296730478357,-0.434604218161686,1.63581898723664,-0.318638280441657,1.39197093073728,0.310247807688174,-1.61831452621429,0.344575075984883,1.31872391712779,1,0.723412601459428,0.71752950244968,0.522958254160194
0.264644496976382,-0.0699489849804021,0.150696169128994,-1.14915041496561,0.672231265363888,-0.920157263215091,1.43910800739198,-0.445169740213588,-0.79015147016764,-0.972529844042408,-0.298897571606583,0.818412950775328,-0.632956360772039,-0.173706196410865,-1.51476506428192,0.956654797212516,-0.668957609199804,1.65260388734327,-0.571047719397502,0.973420257960986,1.10354284385063,0.923310911434628,-1.20999879214843,-0.102239621911151,0.056079863766443,0.540218125990144,-0.532111515802058,0.506169014759758,-1.05324482412247,1.26731782739463,0,-1.71371198218478,0,1.18555521418391,-1.93326718459321,0.514312611780705
0.712097110417639,0.990435403818543,0.856819150434863,-2.46725028027293,-1.11562620951026,0.308956877501049,-1.69469936135713,-0.608619167882053,0.442374497843327,0.710051833290959,2.27036621634778,0.0676225095090767,-0.116614118979172,0.207633177485033,2.45840590389161,-0.484950924075051,-0.568171238862009,0.396272221802097,1.21612018572337,2.11296292680243,-0.506283670203675,1.39484375758633,-0.261448237145361,-1.23355867437403,-0.385394375630081,-0.962575921416408,-0.270067486323955,-0.137677502274128,1.00400557077091,0.309763425484169,0,-0.10339436427335,0,-0.533000544901879,-1.21320466643718,0.212439111089461
0.110417209336165,1.15121394049704,-0.89415774210446,0.927370033241664,-0.521237744615505,0.445782365265015,1.27464377705,-0.154684130581134,-0.930011018528705,0.452078999280886,-1.6486685101723,-0.240552581214284,-0.283386967655912,-1.10533247855726,-1.31367929821255,-0.305003745124292,-0.452339864418809,-1.70412743606018,1.4786061261642,-1.09390002710229,1.01048936999619,-0.342644452488152,-0.278922245687749,-0.31078689592593,-0.899515897660388,0.907220459010988,-1.70529317757309,0.0272006728223129,-0.265736200322975,-2.33568560204022,0,0.26466020495218,0,-2.12367529588381,-2.215460838945,0.0722965195569621
0.144665003759803,1.4234029411036,1.10862083055936,-0.130627149110783,-0.302545254716824,0.0542394838109443,-0.0941535104116636,-0.447546673618505,0.511718529342585,-0.766940727035561,-1.61784749421837,-1.23168502704234,-0.774635084746265,0.441095220743495,-0.345593757204498,0.577583739150266,0.0752503458955078,0.154402543506491,-0.133106128103683,-0.939119308789733,-0.283430456545989,0.180748665575087,1.17038781111994,-0.757092928876633,-0.553056228750919,0.892984835151688,-1.46961477814959,-0.00847088982020236,0.470063445314234,-0.339184378295815,0,1.15787678296792,0,-1.53886065951324,-1.99970630179503,0.142537781960687
-0.652985440060448,-0.0949960607461107,0.63139290194237,0.681230557752047,0.0871253194233384,0.373934293656862,-0.685093680690945,-0.850423219613691,0.096090775340846,1.66322675036688,1.77739245339908,-1.20818925077448,-0.189668751433833,2.88356606962495,-0.359768824945909,0.302721074360561,-1.00109151440366,2.89403599477884,1.68373057943189,1.10198010267829,0.419916830429979,2.1126610293501,-0.07081691645068,0.24148866224068,-2.26867182218511,-0.513420736524243,-0.558193678875094,0.613379456549991,0.762573999032379,-0.883278261097836,0,-0.400092159007093,0,-0.961080876645371,-0.536195858402383,0.229005898829777
0.445572435518918,0.580519104305363,0.0774639459599405,-0.436950218199148,1.091178118666,-0.415078085912118,0.557703589412824,0.206173132944864,1.58195509200972,0.545783300924404,-1.46720824763964,-1.23462282659244,1.0972577188859,-1.93147786767961,1.1924345971602,-1.96195329384532,1.0240987061066,-2.35213203974593,0.32347359441369,0.620957699117546,0.434153136990142,-1.55846038007566,-0.0625326836440111,-1.07849215680142,1.16746648257002,-0.00772969593305172,-0.177620337480332,-0.340408024234437,0.012413352201099,0.477909504382647,0.377697307238532,-0.573258339106379,1,0.235520205967302,-3.76567087474064,0.604058532610433
-0.715411935588488,-1.76912194986138,-0.546776366789231,-0.528291346537018,-1.25604596856875,0.306532956332652,0.130441419686829,-0.164651557781402,0.0294966540310279,-1.00934061085541,0.422087442223301,-0.548203376974364,-0.727494095322938,1.17240125058704,-0.506233887332198,-0.0928694114430651,-0.927990740160966,-1.25022523287819,0.310808684831753,-0.0410421170001746,-0.27522571397964,-0.717836931018225,-0.686239718266033,0.861162932570328,-1.72581314474117,0.592250015292272,0.648494087491232,-1.37989629179615,-0.261925073172287,0.24494508998274,0,-1.22915234177707,0,-3.98841281197481,-0.858349203752834,0.0514212748206081
0.458209644151262,-0.0220492407657986,1.0052038001711,-0.217524353174885,-0.431715283245155,0.452301855027577,1.3071787407484,0.810487941644931,-0.223895008893034,0.563485726638735,-0.269926611640263,-0.836187472643825,0.552645594976894,0.214064484400561,-2.37601599827018,1.02163429702502,-0.764550458359799,0.305539185052118,-0.0534508570522923,-1.0539604911384,-0.692306576589523,-0.913764411123364,-0.392730710799087,0.619013710673216,1.20055214907144,0.425668174431976,-0.353942052774126,-0.385755677586587,1.39827386913709,-1.14961074490894,0.423091968493285,1.07484628021764,1,-1.48261538261904,-0.781079693786799,0.172590953850836
1.52476516058706,0.084483301744151,2.18340104925285,-0.364856963535285,-0.283978718191087,0.312843953670828,-0.212729891972992,-1.41326750102278,-0.262610018453597,0.560242431404463,-0.587271452481096,-0.00261235376256375,0.801108681305182,-0.895648442485585,-1.2489030726893,0.66136352307135,1.06949864362071,0.199656317729908,-1.13837708160662,2.34446861595903,-0.455834929530302,-0.493169067080663,0.688857049525645,1.88697695548993,1.37195523873571,0.377326197191539,0.705671117958497,0.263644525309845,0.66716425922556,-0.837153680107547,0.092825805537014,0.746814187104091,1,-0.702661991236969,-1.51476875355993,0.447465674841188
0.377511653521369,0.962529345849527,0.426961257809371,0.032630914697665,0.404056748193984,-0.0964782385944015,0.751977233280577,0.914133906687646,-0.488370569296101,1.74347598664402,1.8712852835879,0.710340947886162,0.87211763339376,-0.624300422157085,0.620898814234297,-0.459371258921956,1.23311342722623,0.920114078344758,1.21281058482091,-0.185766537574855,0.0564778594221273,0.482157957085793,0.916322263087719,-1.02601002376598,0.595468879673511,-1.30033640961832,-0.213385300918447,0.257741465949902,2.00301080705629,-0.311427437457919,0.1163086293057,0.0982151181479065,1,1.52485636482126,-1.02617460933766,0.832976776759166
-0.00244985419580227,0.142563550462762,-0.120097344987737,0.659136713695438,0.478683317823478,1.8158379170597,0.876917826061974,0.899189248811093,0.309784607042797,1.89713699074543,0.82026967521629,0.19754478455976,0.535262366015626,-0.0215367850413711,-0.226029603594934,-1.9097066426003,-1.85824722368042,-0.600509300088578,1.94623321858601,-0.0256718298939161,0.136625198432825,-0.918296340935469,-0.813111095325312,-0.806236244034966,-0.181331661495795,-0.588266193533519,-0.642551017597664,-0.634252612243083,0.757127144527384,-0.915111634963688,0,-0.195470332149844,0,-0.548358235140325,1.00620282263523,0.355411143537904
1.70974061634532,0.399198511950989,1.15598021748817,1.02735165613153,0.332316336924205,0.419433115683066,1.61669036586374,0.524791147692024,-0.164367668696332,-0.43546752789346,0.109552462791081,-0.0755060829092669,0.765400849552015,0.257984161328913,-1.00587356236337,0.237810773102615,1.03725491589756,1.29877851772401,-0.544442406754016,0.838721116570754,0.404661545382622,0.712302490997682,0.410530250012527,-1.2890210304405,-1.55403736339397,1.15484856876417,-1.359910080023,0.0521497286906328,1.89517310899023,0.0742422949048609,0,-0.480869331413382,1,1.20083605181451,-0.350623313874815,0.69899231768975
2.17875111748757,1.70107554014024,-0.732620153927523,-2.17020035471098,0.160092355947651,0.747335369877052,-1.04786501270472,-0.146504452690712,-0.428337996584302,-0.0148536237446022,0.568212289989107,0.507171312914491,-0.291443206694144,-0.770407142322779,-1.02752403743172,0.24352331181339,1.66483208112386,0.47868635044567,-1.84119738397699,0.562488591379753,0.0163799398488443,0.472428936675437,0.307634124758433,0.0365855119809957,-0.0941584262413662,0.429945413002798,0.0185461048833702,0.324787677714081,0.426724508695439,0.837704538650004,0.154239033367977,-0.116544025868371,1,0.166702546286292,-2.34421120317164,0.534883374750984
-0.758024951490902,-0.575350210273394,1.85347806164647,0.750107335257749,0.592329899734349,0.163723111308428,1.76435860884775,2.9553654513895,1.91085977551565,0.452441840976671,-0.670039567128753,-1.76845872995037,0.748379010022179,1.76967137822717,0.347666085170632,-1.91258445852894,-1.57326748705354,-0.517322715472937,1.72397638941187,-0.75763517912815,-0.910620398621119,-0.976473256456072,-0.75362923351505,-1.24290984045076,-0.381659015570007,-0.704066827442694,1.73509648243592,0.109902941891154,-3.00674877902863,-0.357286547528712,0,-0.234260529864437,0,-0.645630622069148,-1.13277049755572,0.384421180136959
0.174919815969363,0.775755611102451,2.23572849328286,0.0154526676390721,1.26652851726613,0.29122056666152,0.00380053528958847,-0.445089307522662,0.919027278631742,0.472182691021686,1.46316354424664,-0.267894971855829,2.08333171284019,1.04927094025991,1.32330458022442,-1.79932729089517,0.977915836611491,-0.537145689869422,0.323009080966442,2.8067000295081,-0.46531374169507,0.00848931913688174,-0.876344267112598,-1.76286402222284,-1.45230929589746,0.179924340783057,-0.314600851665656,0.646384743789035,0.791621970023177,1.25791683751063,-0.00583267645808772,-1.97790651301731,1,1.87743293834124,-0.338351846499562,0.953376220694364
0.136191049602604,-0.80897119896161,-1.16391172002193,-1.16675483150649,-0.352954144601142,-0.826990342458841,0.786372114567681,-0.501898685725284,0.548811879703349,-0.335705213842693,-0.639705970219741,-1.44564043499743,-2.42827673920181,-0.459060153641769,-0.957624998913917,-0.0752381524057805,0.426220117051046,1.39376741425539,-0.511806298440792,-1.79679478812797,0.398351549371824,-1.66950986976761,1.87417614368064,0.104126320001637,-1.06148374496887,-1.62025719298081,-1.25658284137149,-1.3491825744957,2.53894226108726,0.426417917769167,0,-1.09841469042391,0,-2.47346035496427,-0.533706418944567,0.0894955807325192
0.153650057633872,-0.331995276447382,0.869435666151395,1.06816644778997,-0.642053438841589,0.964357973629916,0.619104858945692,-1.56961757409243,-0.718924993731241,0.310988434793347,0.0658273821930534,-1.03541964221013,-0.447412592019524,-0.370548568959819,-1.5534197380076,-0.114137708673294,0.100113759896251,-1.28440148402812,0.377022250521926,0.46616277168898,1.13183960133484,-1.20262220217764,1.82903541746673,1.05160565260236,-0.422517590919393,0.46670116723916,-0.867457951402101,-0.923605147360616,2.23138435511569,-1.20830203878079,0,0.466174507274484,0,-2.5713351878228,-0.639242103580032,0.125682695520272
-1.89831122118894,-0.927775074690321,0.411970522201581,0.406211992592025,-0.506718963564104,0.0775322877569637,1.54247781345682,0.248424779393833,0.783281856806138,-2.46914592138015,-1.6841521735171,0.452215081724154,0.200684055134026,1.92261651859401,-2.40928250203465,0.818710098824973,-1.87802963623126,1.14944471413346,-0.340671563339729,-0.503228584244934,0.284969686204667,-0.953104856433849,-0.84680602829106,1.70032981684012,0.871589804077601,-0.287824299242144,0.562268056170435,-0.290241784955649,0.250360370053285,-0.157786424577231,0.443262251951398,0.416860070243045,1,-0.204265262004691,1.93401163767623,0.383904608981922
1.58327118509061,-0.0398297360275118,0.133808366071481,-0.177617230625484,1.55015895228403,1.47475498929054,-0.409491900999082,-0.42347787632213,1.61989605050798,1.25160959463713,1.79561175900832,0.0229624468066541,0.967392420213339,-0.945210213610628,-0.56652034836878,-1.09128607353594,0.750347110322884,0.172355218664419,-0.164874192896618,0.457302600393794,-0.211109051221295,0.841738863947729,0.646350706865213,-0.923491978730271,2.51374329201434,-1.9464372690271,0.354063493216254,0.644488553019869,0.328305939000218,0.677491211724231,0,0.310521295187991,0,2.12892138217814,-2.78587062667652,0.812868755724974
-1.6777756354122,-0.486298626727145,-1.33955883304664,0.965700861771096,0.462847096613247,0.0407202927390445,-0.174100888436939,-1.89351310038786,-0.980496482968868,0.77427760407249,-0.736164128321987,1.36046415934561,-0.0359614140005531,-0.388482679910847,-0.586060181449816,0.999580219252565,-0.447703732934357,-0.425806510639121,0.582344219742572,-1.11685565756162,0.769761441937534,1.36405203550297,1.00503280177764,0.696650916925952,-0.685312527865995,0.512035950394566,-1.37309523802387,1.01466660933109,0.32947352978281,-0.884934526772875,0,1.31330656861592,0,-1.02972165497424,-0.79839822940411,0.180771762767979
0.160375384105959,-2.37893782056533,-1.17410684519003,-1.02814487035373,-1.58628190981733,3.565787572479,-1.47176751250403,-1.16140681720753,2.48092285318736,0.987422753555653,1.64780474286648,-0.567278942388659,-0.887911057354452,-0.364218886951838,-1.75893489679726,-1.51695587646859,-0.918310636955535,0.324797163512404,0.270724118727896,-0.104486778170981,1.67734478969195,1.65929018916137,1.14454790070706,-0.643625627651164,0.418668877132531,-0.625056231424911,1.2501637276442,-0.667172381857345,-1.07336387044386,-1.48504667122789,0,-0.546717710171736,0,-1.76610202185447,-1.44746797709534,0.262357032609741
-0.780972285976274,-0.187792887470562,1.1820900713118,0.822574595981259,0.819372774627832,-0.278695574898532,0.177039931087223,0.78386599804195,-0.198530984596901,0.5634030544731,-1.01242577852886,-1.76232978720436,-0.649969888441429,-0.410835029448346,1.40776684349917,-1.22004864061133,0.0499297874078387,-0.754465032992168,0.226924509438639,-1.7328408386674,-0.614870900878567,-1.20351737553743,0.725311715159856,-0.44938058787682,-0.540919140041823,-0.0376578959260944,0.493949822339002,-0.525558722394115,0.671897548709155,0.284405159233084,0,1.23706829086597,0,-3.251143442145,-0.659140565042937,0.0687235288611157
0.750887327049451,0.555236584214105,-1.54703459640012,0.903515382121255,0.872650839497866,-1.87821199679378,0.519436965461524,-0.83498468687502,-1.72100051362081,-2.39968705233571,-1.19784572692225,-0.380940700715456,-0.796699289847914,-0.580022233837392,-1.11940382325471,0.859791750438933,2.40715596434281,0.612069175375093,-1.10820705325818,-0.798490792587769,1.34227098385769,0.268168627383351,-0.715523620902278,-1.21341887753785,-0.0817703700143002,1.67631573949193,-0.00170034145711969,0.515636497117691,-1.83655861768686,0.326717251660233,0,1.210409812393,0,-1.13255968252985,-1.58730387165649,0.191417482015687
1.18796443684929,-0.165931506749095,-0.422008822084654,0.225763291491092,-0.227397210842123,0.945280152951067,0.749131374446323,0.96585484687431,-0.154743381898737,-2.45985610740365,-0.55767498440098,-1.85811453166167,-1.94354324233388,1.03639931958342,-1.25874183438824,0.00974708589710421,0.113221251918369,0.334321169515575,-1.75638357193197,-1.48578016996789,-0.207905985096148,-0.827564954889388,-0.939371783294975,1.17703097624103,-1.24503927913117,-0.0547288552857519,-0.94462209924615,-1.46607649045439,0.722410916727058,2.06142411659737,0,0.284051156052032,0,-2.99531684003536,1.86096650688817,0.0494129890140241
2.35037257216143,2.37444484459426,-0.625950414895373,-0.59984013595619,1.74584044105264,0.746349428866365,-1.64562818675437,0.731864556697941,-1.72761665879807,2.67540411218055,0.990587085262422,0.676129982076165,0.107028137487705,-1.3071182737476,-0.0245754521557883,0.078619702335351,-0.455997693353646,-0.993911831293053,-0.6156688109911,-1.7302767457128,0.166934410047544,-1.46314472449433,0.37039433229092,-0.34080134770803,0.874944157564778,0.508447420883528,-0.73247301517217,-0.10581068695974,-0.329582717023285,-1.57406843184073,0,0.0770977803196742,0,-1.90626489300233,0.221623553782256,0.0761688607738997
0.493069789725417,0.000847831219424646,0.630902958240821,-1.00096720751382,0.329148990732578,0.5303225191757,-0.758813715027798,1.99898300176768,1.27581139641414,-0.395316856939305,-0.338062345012844,-0.56002793911191,-0.195633203371092,0.848721450221313,0.547962010807688,-0.404438525616263,0.705339283863878,0.801066399957742,-1.65139252377216,-0.694536746311069,-1.08760354826253,-1.7851732210329,0.974134235389545,0.344790295852758,-0.179298692353217,-0.532337417311631,1.47470382732704,-0.670963661582089,1.0584789611385,1.18332049833657,0,2.98848024247819,0,-1.31865970573592,-2.0165573010206,0.245888864691809
0.296722441401726,0.000312738189612947,-0.342843617702149,-0.495500975408897,-0.529472749581645,1.13517852910906,0.525920457629967,1.34998871904903,-0.214805418271787,-0.478692848101782,0.036404276581764,-0.0234753957073499,-0.686019524322998,0.553121788288843,-1.790201772331,-1.33501983294005,0.95097727287312,-0.137038203954876,-0.310711167918031,-1.53646391103968,-1.40331300086442,-1.77580775572176,-0.662862877496808,0.708655538558208,-0.175689078105731,-1.76289265402443,1.17303788265897,-0.669617223406436,0.709130589741482,-0.149020690634461,0,-2.31006174905907,0,-2.48291760286056,-1.41346080300601,0.100523500090582
1.3991668846905,-0.169510211806123,0.840116133248321,-0.659160353741851,-0.21683567631723,-0.0371669764275973,-1.07159168675838,-0.743188943468874,-2.50208378282603,0.161283518475747,2.48069783785475,1.95630108514853,0.626784381677571,-0.289613347497428,0.282098309629489,-0.1563437149746,1.52331805236288,-1.07471643702492,-1.68467145231397,2.45217657743432,-1.08791335419127,-0.997006152219776,0.747139545393788,1.93067318246746,1.128409705137,-0.0296281715768791,2.9828351252575,-0.544096718657671,1.06568003934814,1.03030783023413,0.000975830633525243,-1.3310876328239,1,-1.70158042010385,0.553492013842398,0.377557608334662
-1.37863809976784,-1.820633061941,0.809710860670762,1.42551884976055,-1.91394353866304,-0.783515735725829,1.31073525240615,-1.0742627807295,1.0929724688973,-0.220535125800722,0.888354533758348,-0.359687057240119,-0.836672932201892,-0.348553868094554,-1.7839351358991,2.41860189366216,-0.899516273868751,-1.5294942519934,-0.77518272608068,-0.0697102333063766,0.660251674555386,-0.416412862480424,1.70983868033729,0.773963536802411,-1.08680298521883,1.41921756083585,-2.08838701996699,-1.53967267409694,2.25568594542014,-0.502694793057449,0.423216589010908,0.898313026573562,1,-2.3997548287225,-0.77972034524487,0.397293093701025
0.512836148751177,-0.103696321448662,2.11816199698004,-0.663665416914746,0.466178466370381,0.571087367182453,0.694231988469576,0.493452773860311,0.452325692231355,0.901504901224001,1.25610933333735,-0.698424560648898,1.53896856086244,0.255952653051452,-0.524462751900124,-1.28684016741768,0.144607507854668,-0.0283362903647563,-0.84255094077937,-0.0723672052459441,-1.16308946336121,-1.38586755655833,-1.76489392473741,0.154337751407049,0.781725387792048,-0.61172163366721,0.511790690787635,-0.356024186304183,-0.176552733612422,0.224749299589254,0,2.40505518015804,0,-0.202403841217012,0.0604603615304515,0.460982192431009
-0.0313734227467871,-1.72537293045909,1.20999059782165,-0.262977859681642,-0.555680026504267,-1.74350266751899,2.43949193408248,-0.066570598419974,-0.39843067317349,-2.53404279756199,-0.908117295406584,-1.11696797561056,-0.0669474110032559,0.704251954961381,-1.73579333989937,1.30932385755071,0.148064764234895,0.978876188384517,-1.16100906780211,1.09623984475565,-0.690988886637843,-0.324989618379484,-0.781492993451454,1.38300738713865,0.815871134669229,0.36414041273552,1.2061350991156,-0.616255094682063,-0.131569366328894,2.07668556702039,0,1.0635693529084,0,-0.797864585923885,-0.362736952520897,0.213515494082009
-1.68092227710824,-1.4042489139442,0.538484389588381,1.90473725641868,-0.0518373612425276,-2.53550871369902,0.717119528714303,1.27636983809596,-0.88671213822682,-0.822559207165199,-1.08483849203102,0.0428382906921513,-1.40136918209881,0.735620078620418,-0.332399619156169,1.25116383432344,1.10521080672732,1.30136178837965,1.04065089414884,-1.43344285922469,0.077429287656459,0.783171021253386,-1.98272699838423,-0.486660630847664,-0.402592287784214,1.16486960468949,-0.467968504908516,-0.661163429576158,-0.959366756405135,-0.478955196058377,0,0.824281948022393,0,-3.37451576263565,-1.38701306438528,0.0648897778300505
0.888816243357809,0.174656618068879,-1.7990621653504,-1.72733755071,-0.0913705521231628,0.749697134002769,-0.663117945425792,-1.37638319898841,-1.20808904988497,1.28603353112912,0.568380477426155,1.47893900435089,0.121921771914708,-2.48815724897187,-0.468751683164331,-0.375579950833169,1.10010362910418,-0.510315095992459,-0.0376809675950144,0.961820855392894,0.179948375960723,0.4653820664873,0.194615640533555,0.644931253530337,1.09323652640617,-0.806819789992124,0.811226478686092,0.522337045847953,0.26859885705697,-0.0632428106395517,0,2.26788920960301,0,-0.37677926574836,-3.64327320297108,0.276639062949215
-0.466141186987151,1.48751595462178,-0.4192219442265,0.103585953838358,1.10101367600122,0.270615786916453,-1.04568365809454,-0.309600150990268,-0.546840597603986,0.0133560296221772,-0.116218580026697,0.0284769054872507,-0.106456666773197,0.984620344532375,1.34689119432548,-0.593283899409522,0.024486845228971,0.106727947541536,0.773523411302842,-0.687794482980623,-0.272928018836295,-0.743618413293072,0.864062609468847,-1.08671816134917,-1.34728091193578,-0.22778279301399,0.845677647553634,0.464031975441961,0.90357639555191,-0.622529190111928,0,-0.114805246790478,0,-1.59459007081325,-1.91885118663005,0.163150143837883
-0.376736617588703,-1.58069156178626,-1.33437036422098,0.658839238383237,-0.0625980103862227,0.664037732863631,0.324646141613352,0.543837250618511,-0.139063817093818,-0.578706780404357,-0.223954718884309,0.448557877871322,0.106949916988077,-0.0725188341421253,-0.546272060983815,0.00551587228513597,-0.742406553573947,-0.697206890099311,-1.22457799167227,-0.700243184825689,0.952416079004002,0.383564451640498,-0.467396257605901,1.62511111573556,1.0799534054638,-1.23013966310761,-0.846762068181701,0.924538255762975,-0.54302622641239,1.0405286992693,-0.0492553100263771,-0.835047243245172,1,-0.157437911276281,-1.06810167509689,0.428952961394884
-0.840110507630497,-0.549318594437189,0.395845603500305,-0.961328705841377,0.485609678648588,0.754257695989063,-0.760476507282733,-1.24411976490982,2.29706868466276,0.460157149477703,0.771902575879936,-0.566430822831894,0.457374704046543,0.189979912757874,-0.308675986493607,-0.334470996108084,-0.715456889721911,1.66155335703857,-1.15189357313957,0.904436250648226,0.102470204855807,0.880184334220895,0.468048525157257,-0.0837027784605674,0.686746846508755,-0.645084085102976,2.26838335406234,1.14772727517051,-2.39668093900325,0.771551785145315,0,2.14780129874796,0,1.31922288738581,-1.43936977857611,0.69371644330903
-1.36260897836015,-1.81145792497681,-1.12264767487954,1.44749149929514,-0.0859406351619851,1.38962612778374,0.827540279027228,-0.73601035569206,-0.0411337489316854,1.01506251246466,-0.233258995328443,1.38080802114799,1.69901609616056,-1.2704472628901,-2.23028285044609,-0.64281758654012,-1.11082126226909,-1.65418836044156,0.069269820510747,0.233252408450614,1.10073576785949,-1.54195854942329,-1.69563962515189,0.245786633929057,0.717689486105085,1.40514128287416,0.525457145660406,-0.0186662160309299,-0.425607955943462,-2.1191665396131,0,-2.46261270339429,0,-1.21327528938866,-0.209048500011802,0.24437511243396
0.338818150952436,0.487274892945773,-0.430727184057094,1.40165546758481,-0.140910306703335,-0.241948611825545,1.54231944298386,-1.99737807246073,-0.223281263107074,0.482961303251509,-0.620974455165503,-0.278594956285445,-0.989324340446058,-1.94295349475659,-2.3489171802126,2.60771167441457,-2.02509178078241,1.43559476605365,-1.27729624129024,-1.28334767131706,3.22013353546144,0.640082709738052,2.89217284081412,0.279851898718677,1.81510576163116,2.14739985223176,-2.96556071180866,-1.02852765320214,1.8274975109346,-1.25246938635596,0,0.0470494000138953,0,0.5209921117983,-2.27346626166098,0.335871162587618
0.107175258008175,-1.15261082064994,-1.283625029819,-0.217613047566667,-0.0580025100013689,0.891282472946923,1.09400393508884,0.682170014604242,-0.594901124246833,-0.59734076086283,-2.95361805689327,-0.520808309227326,-0.664393080970413,-0.603500615780525,-0.43005956477117,0.373735103365826,-2.2341206274732,-2.33308651258734,-0.36142255856859,-0.843350373291716,0.806637346517285,-0.640805942276726,0.380778048453395,1.57130401449015,-1.07230929730192,1.50463692263559,-1.51437675226643,-0.40928292523585,0.962165332739391,0.508163619571625,0,-0.329185504328055,0,-2.94200873308765,-1.16029512980464,0.0762446541883761
-1.1752148904454,-0.957928425597771,-0.532040529114618,-0.899211927257633,-0.331504568156216,-1.92144976420001,0.346023395600128,-1.19984611133616,-0.407242736920594,0.852035884948906,0.989640670437202,0.573278042860173,0.487992153642946,-0.697474907915229,0.568306553098047,0.740192010816769,0.13624841247147,-2.05927970170075,0.367756725262005,0.307172508530703,0.383006402309256,0.262807312424355,0.182957298750447,-1.35735712727077,-0.85350675984973,2.11909693365378,-0.472091369014305,-0.549175527827355,0.288025802378677,0.0242623604313367,0,0.75536283619247,0,-1.67444723391323,-2.37204408092285,0.225582541345552
-0.728093861750419,-0.44613657202855,-0.391936861448974,2.38814613133598,1.71817043706956,0.0490158287354119,1.57979207638222,-0.752294593829977,-0.202332575128669,0.0516104647374169,0.340544035264656,-0.090006112321102,1.03785806752293,-0.158031876446555,-0.696018312642462,-0.642262308372656,0.881952674599155,1.06043043519775,-0.0998585606576466,0.0270551636030196,1.21118051600188,1.23133563678984,-1.33053503549183,-1.57769942486885,-1.32774900688126,1.23223144754757,-1.49397163460346,0.466837678398442,0.240606774085569,0.991750405293059,0.495700872527267,0.257782629068179,1,1.64127875978067,-2.36715287411404,0.817126305350873
-0.0662545453552318,0.867237295932933,-1.66227808751839,-0.703457266698241,0.813012441901371,-1.35663120064788,-0.746164357533181,-0.928648730519148,-1.00315468327511,-1.06834181289377,1.13443048137573,0.808043884821699,0.0334236226087617,-0.427582018536002,0.679523919702152,1.42502671150182,1.26607980324799,0.539801977813518,-0.272082934002499,1.2354277219238,-0.644296844603018,1.69307870664809,-2.2261252494167,-0.394612614141284,-0.566300003372827,0.388771327785909,0.459444630334687,0.965472392417912,-0.617043632316708,2.03404617627806,0,2.62136013709795,1,0.0588694322656339,-1.1886925522875,0.5654238872158
-0.78719995706098,1.49979813436839,1.88606569558803,0.450667951086035,1.85633648833444,-0.790547508238039,-1.13311859629455,2.60634475971321,1.34045505196065,1.68465357148561,-0.899523953416886,1.85889380200907,2.26239457290925,-1.23838595663195,3.56752370139088,-0.066109587787019,-0.504915007802053,0.699358445699763,0.46324821425434,1.39649385196931,-1.36843413557085,0.460306951804673,-1.94572806945769,-0.90603003713962,1.30604396877607,-0.1088854328605,0.905026920283635,1.77263039041257,-1.64709826198113,0.242230641578084,0.221986139694299,1.17474834691027,1,2.46466280577632,-1.01113965429012,0.956167987528055
-0.333781045439072,0.117381491030858,0.0342086485419494,1.20122358987019,0.163649937630018,0.0598676249830683,0.386844733147251,-0.978325501621149,-1.28944712207437,-2.74333603643604,-0.563435803407168,-0.0600770822132654,-0.0457308451892883,0.669230329894432,-0.798867889631358,0.423539777048916,0.619376499076095,-1.3686681857707,-0.818762242443188,-0.321152541584018,0.873812667870051,-0.879344768687246,-0.313490938443766,0.500610072764633,-0.940440129870581,1.96533820353896,-0.951665082136807,-0.840525301688937,1.37659321032883,0.782457201487089,0.287997774920494,0.62360213486541,1,-2.09985044734271,-0.540438455250984,0.168111058897898
0.637980859198116,1.7928324889022,0.954852647168468,0.380910977048566,0.317123826270888,-1.53438812884639,0.708389271769135,0.0311349588618849,0.191570993333185,-1.31196534846659,0.292192193097999,0.0450410985891377,1.14663289210597,0.447634010267987,0.979307810904559,-0.671043255715975,2.38360956847987,0.139791321741986,-0.193619949227053,1.1300234768192,0.695928545530314,-0.595357728288303,0.29798793440422,-2.58293892903865,-0.647176897983421,1.0823812360291,-0.428217385550003,-0.0785101066349767,0.6111335918833,0.209769679056877,0,-0.532736752763561,0,1.53524456329164,-1.07896421107999,0.655311459046797
0.654993428794449,-0.913557944377183,-0.0557409901174114,0.00212178576579026,-0.223576276374304,1.65328735634895,-1.50240900319024,-2.09549048679281,1.75192174884014,-0.0220913885790105,0.334817219689306,0.673237798622139,0.666660355007346,-1.15349276239,-0.0476639487103907,-1.22288231503897,0.73045975790493,-1.97848519398475,-0.952829005559437,3.02146115764331,-0.248873337911344,-0.201888527559538,0.692415082328444,0.551701631269193,0.795308454702176,-0.75383414969822,1.86670846661317,1.09080290910482,-3.05863748541373,0.252936534657552,0,0.723797756827794,1,0.0106286325251949,0.410892940445083,0.505462002895024
-3.22447496947045,-0.724559910069692,0.81964452027986,1.45226378906739,0.589104009374131,-1.7891037734315,-0.675748753406424,-2.4007501617211,0.0975938710880327,-1.31842080256276,-1.13312193152128,1.92039506611029,1.38691861848064,-0.0850141538862242,1.53761874758112,1.49404177039228,0.318582354346913,0.628410242125391,-0.629096972047712,1.20849295225846,-0.65838515833373,1.49582292000682,-0.508903136145076,0.550786845356781,0.228935685266434,2.00181251346852,0.862160506292276,0.807509747846261,-0.559297440629651,1.10190337283471,0,1.74893243191483,0,0.381256778824086,1.39685446538486,0.293741730435184
-0.126529119307646,2.77159628827962,1.10266491695666,-0.742863187952162,-0.39528381157682,0.491921537465164,0.399405945476307,1.39782848566771,1.10371621022223,0.995174466309523,0.541472471458593,-1.1695070788241,-0.558590670403404,0.138923436926725,-0.248325962153011,-1.0797648494432,-0.510878430717908,1.48458938437244,-0.377731450266877,-1.09981189816294,0.471794789973123,-1.12988787005567,0.490235133200691,-0.206730482757977,-0.0982195448315065,-0.876468375944533,-1.1928059533263,-0.92735837127898,0.454509684827314,0.13879497104752,0.548848037110034,0.714600360371257,1,0.740686330517432,-1.34859595180109,0.677290342881519
0.436706311489801,-1.0197366530041,-0.526376494449874,0.1871583470415,0.342291460209169,0.87446701359845,0.36343550559626,0.187316412473698,-0.238175520560447,0.0140823361662021,-2.01396530841923,-0.656971040624973,0.739149563150206,0.697743615773893,-0.160620389675223,-0.243980096205716,-1.08018636798524,-0.538922215290712,-0.59610118116034,0.441383544167881,0.0268878685043506,0.305001630915994,-0.367301604789147,2.34991055872264,0.140446553285879,-1.22256708689164,-0.0157877191115503,1.79173796843875,-0.46106863641929,0.0360857857054633,0,0.359215349485013,0,-0.772941773533076,0.469027116965403,0.346235147668604
1.11148061331664,-0.708429737764387,-0.76966461941797,-1.34444362278262,0.51988101968657,-0.504460880852529,0.828847906911008,1.85865545756211,0.178759217454153,-2.88082703783162,-3.00677323639831,0.124540530333659,0.485027448277854,0.611085804841975,0.578031231695801,1.14720413436799,0.381301253594088,0.811612378993834,-2.18894114241834,-0.0470970025308613,-0.186464661644224,-0.173491840266743,-0.763119432707027,0.677271580417319,0.532460682392987,0.45922111824186,-0.747530249396247,0.508101382840265,1.75664761626433,2.56941201036438,0,0.965880161315892,0,0.572699355520012,-0.517788121911947,0.407797725983337
1.83161884058838,1.74062404127142,0.0788393279379123,-0.118749396332539,0.885521571129234,0.772462217172489,2.08626719210813,1.66762275391612,0.802237221863333,-0.692632305631243,-0.177683237634647,-1.60866289013478,0.302249915045252,0.780665086918005,-1.17245184274889,-1.40475727934853,1.21171520308644,-0.606705251188845,0.969019251019287,-0.0633424953612236,1.10839304265968,0.437574823616929,0.00862352275342115,-2.481026461442,-1.22094923644637,-0.723851702979973,-1.35630024497125,0.45927149497545,1.47993575511322,0.222652589214029,-0.0546572306633001,0.373329945639087,1,1.64452407596775,-0.497430275507932,0.875427458850001
0.461699688741232,-0.077237421595611,-0.445994941465853,-0.638569767326922,1.08739699546067,1.80746674428808,-0.297825916518941,2.42312421799023,1.99552154444129,-1.79211788496592,-0.935684568031503,-0.149766575687828,0.991974339270426,1.38422525107183,1.09809824437695,-2.98814940573759,0.969713905809946,-0.742957163401466,0.084090146555533,-0.0329071691261225,-0.564016882225632,-1.75816415211514,-0.915499711590351,-1.16225870492134,-1.55695995793139,-0.754915309796649,1.86384423718586,0.0485811537999495,-0.923001501756915,1.22331848480716,0,-0.28283682037696,0,0.0151765398058912,-2.72385683093199,0.300463125180248
0.850332581931442,-1.85419839821042,1.86874835378937,-0.587503018373186,-0.799598686513471,0.991498602901463,1.0561924583223,0.709994683457353,1.91994905472503,-0.0430769710683441,0.501576907133648,0.244742468120309,0.410083737218572,-0.737589089674066,-1.73534450481111,0.0475964669919705,-1.20140041490292,-0.267726579354145,-2.01929482731323,1.27703698697373,-0.916991852981172,-0.967688510802663,-0.58683896507435,2.1529571618591,1.7755681010928,-1.42949024106329,0.528060881971537,-0.903336634781978,0.279832342445486,0.894743366732729,0,0.565868941050772,0,0.081605830256439,0.494214354951123,0.316159138763427
-0.566995232708566,-1.45777669803872,-1.2600166439438,0.894431565668547,-0.819449296506716,-0.112669112567392,0.295145173643007,1.97106019081339,0.0598137500527672,-0.344200919590834,-0.91157291761516,0.269524095515064,-0.436673820210976,0.0148132250564056,2.07867342770711,0.31630633860596,-1.11979676684941,0.0928538289008944,1.01894341193354,0.0353235112072706,1.02129596314877,0.432104621532892,0.194471679207371,-0.0502385337725541,-0.995926566783734,0.313053309598018,-0.689411779677368,-0.386623742284441,0.853546697468309,0.209509287899634,0,-0.00749038455804063,0,-1.67434073818458,-0.844486321416915,0.108467529594464
0.650600305207677,0.325058387807562,0.765816824603139,-0.477972627252906,-0.432044568647338,-2.24535745955097,-1.50908286176765,-1.88403188217128,-2.5225356853048,-1.55398987095442,1.4734244888477,-0.382194823937622,-1.29974157379442,0.673201551389551,1.04127596588807,0.993475426760618,2.16620870720593,-1.62297203510884,-0.948852243623621,-1.1506548278523,-1.47836847805313,-1.70408988675091,2.15537367311857,-1.20738055416147,-0.870329749185226,1.80051268069394,0.0612119725191469,-1.87922777879057,1.94695698695061,0.536036321949727,0,-0.442664901625869,0,-5.58470085807455,-1.66154775442171,0.026650652545728
0.822669087747295,-0.982654521047987,1.11900106643196,-0.110591415248742,0.365260082380599,0.800097065407185,3.10073890930846,2.26785562938031,2.19424432276035,-1.27933059387902,-1.04210519879926,-0.269202023002748,0.507741450957931,-0.765873786707328,-1.17473478358601,-1.31947279196937,-0.518634576464607,-0.380912746998085,0.630473342845579,0.413319400820539,0.00160119841043543,-0.234035338800006,-0.74583436122599,-1.35508738622935,1.91521077432109,-1.52855298632861,0.577898619078437,-0.417339247102428,0.127258175378123,1.02810428466683,-0.0465658781129365,-0.686806366949407,1,2.1337030715075,-0.469592209234978,0.842500469043168
-0.488425691482694,-0.163746425996865,-1.98643813234192,0.590071162537243,0.784473700451716,1.62367751137558,0.115852295838309,3.14747110042564,-0.371723184410606,0.523310962336798,-0.743126923330975,0.731708620359905,0.524678371623829,0.837319664568489,1.08980377768555,-0.0675201790231217,-2.06490673154463,0.552672246499228,0.927197597216733,-1.44846017342472,0.432776258354591,2.14112826799474,-0.90374959998171,0.0145945117130335,-1.00212983390914,-0.703306399347818,-0.274582715454282,2.02259557959296,-0.0792420865343997,0.348396560225027,0,0.0684200508712087,1,0.3938278982806,-1.53262186198446,0.709418958200104
0.880232003573616,1.39802051929158,0.0998362743388676,-1.00404053948426,0.168423119896983,0.409519632247669,-0.602202723064873,-0.129497602935873,0.747847357317205,0.78274245604878,2.71342836602315,-0.180610624683293,0.657322859133358,-0.698384454917213,0.38077183856784,-0.933364060394796,0.629709582965225,-1.49999707133213,-1.44722125030839,0.506776894017861,-0.920199122418807,-1.29647639853297,0.118762093660725,-1.51617728993171,-0.0198046887170803,0.0149938521572072,0.326724940535227,-0.234737044518843,-0.456564212469214,1.37245423177052,0,1.26999783932256,0,0.189878945354936,-0.933812152790913,0.456001314055989
0.345065662315832,0.720341622818731,-0.415175253782021,0.487260141056282,0.654699591020672,-1.7152496770666,-0.899752187808478,0.177962063505592,-0.963260324522612,-1.60430155593506,-2.23455708003437,0.315466201647352,-1.06299085227098,-0.121471793255315,-0.137003990031953,0.850217298195417,0.730199701839658,-1.33773467063141,-0.346525096707797,-1.98040186891724,-0.894017745764379,-1.39853873910637,0.0162388290003213,0.585746383801784,1.15052819469251,1.02131803223843,-0.533605173425389,-0.928866469328099,-0.573507526880159,-0.247685842587732,0,0.484870110289455,0,-3.89386277781963,-0.965879297649633,0.0481841858486612
-0.29207389137809,-2.1380293178423,-2.27146095871266,-0.0336672351788477,-1.12184853479081,0.48829830546835,-1.60787688947669,-0.396382879312816,-1.10105784612207,2.02086157706497,0.0631747897412149,0.385674490002987,-0.264091765688656,-0.829086515893937,1.25943971811526,0.224335347476691,-0.191332181529035,-0.562705370355113,0.325532270741774,-0.0275426399363469,1.02967118963588,1.62055128243187,0.314378027234182,0.71516130995085,-1.53055628881883,0.489162497738406,0.53925985480687,1.11466133463675,-1.18235783818678,-1.76529303989139,0,-0.254448872540806,0,-3.69281600897884,-2.30604421555113,0.0575068226663669
0.579978122601978,-0.9257339881074,1.14335441032754,0.0436947371046399,0.383906554734745,1.26457554103377,2.17422263790287,0.73619118200394,2.35358841311825,0.0970608872169861,-1.56669135578911,-2.09895300079602,0.425129917890722,-0.942790530637937,0.717851785193217,-3.45343629150067,0.103065648870853,-3.3597461856458,1.43521462301434,0.537151806206946,0.273998150774764,-2.24249035436255,0.743391580084449,-2.42475533727778,-1.27976975516486,-0.681172115918383,-0.612354811505896,-0.407821545535298,0.172846666009581,0.0815411818631811,0,-0.392551057305978,0,-0.710526478779362,0.102349252216077,0.208856432616025
-0.370433850466091,-1.12497383342447,1.2667542666167,0.362645126895356,-0.613668888680304,0.92421456250117,2.0855419029791,1.11254616853872,0.90153694204981,-0.149211722210154,-1.53872017648615,-1.16347838567956,0.943898678720156,1.34707567932195,-0.909342690417275,-0.563987793195423,-1.7309346489484,-0.771099915452993,0.282903818056721,-0.206367388318081,0.608236591762903,-1.08487009760417,0.273155722259118,0.32734042318513,-0.500120333535662,0.282490034258146,-0.932414417378295,-0.0735251613278446,0.518344246589884,-0.762626551312311,0.480255815781312,1.43318512206323,1,-0.569383101848176,0.825231787311384,0.525804733041827
-1.6173609537588,-1.61456909892074,-1.9008374319983,0.313993363167042,-0.309082829681757,1.81399128030858,0.267712581399482,-1.58753963942754,1.78409152285183,-0.89929582982173,1.11118372781957,0.726507943834379,0.744550457842289,-0.13170049157447,-1.59271862590832,-1.04195460979652,-0.0663681839548072,-0.809240634690051,-0.333874548507818,0.47353003325803,2.06830127373855,0.4947841136335,0.349970198784587,-1.22271170337107,-1.10754480234712,0.678733496922256,1.17640719063533,0.467203159666349,-0.749946673787154,-0.170985696206844,0.454622960613038,-0.811227734080478,1,0.863013584032478,-0.524823747662184,0.83855583317397
-0.584409562020174,0.822421227113413,0.874074158497671,1.29919848908303,0.823241935139477,1.03251676541695,1.02496757898538,0.192602082938249,1.38273156809427,1.09361767450933,-0.00558064218377866,-0.298573428837384,1.76288470727164,0.00999156697243833,-0.0242192778660405,-0.996668157932406,-0.763324146926536,-0.505598094248084,0.683120581640872,-0.399315968665857,0.832364059769796,-0.716093877851172,-0.614559429851171,-1.35352389828823,0.406362441978187,0.17153275743343,-2.39535052715566,0.273961927155721,1.1076131504702,-0.936270655846316,0.0668110939792728,-1.0199894309585,1,1.72661987101334,0.207459334817915,0.79013162563758
1.19653349470408,-0.499777167457785,-0.496821998699794,-1.18207572988423,-1.03011858530894,-0.484615004811279,-1.93823968878133,-2.27388299803638,-0.702617169168249,0.886088463984729,1.54710558842071,-1.96206790902998,0.319881243059693,0.13688364899264,0.433986745604482,-0.112615468501396,2.9251112719989,-0.110901735682108,-2.50183848097142,-0.872718436148095,-0.701402054760948,0.00833074895641334,1.48336246172553,-0.346572172739269,-0.69002799645733,0.876610315068036,0.0435366189532774,-0.0595016507289651,0.579150940867607,-0.0804799264210162,0,1.11444677167251,0,-3.43109450963781,1.02269620948729,0.0536637368281369
0.0979467705024828,1.05958892941184,0.64177258093327,0.464409248747895,1.93118006377553,-1.15679273400753,0.465141192642644,0.369663333287228,0.230767516026054,0.769956580086808,0.0348868492180912,0.232155467751686,0.97177387589145,-1.56759756611417,0.287777859730725,-0.90832616115263,0.867092168929777,-1.70863350365104,0.289980882943106,-0.421103200858065,-1.67633076122145,-0.67070904258093,-1.42854468012099,-0.82425321780011,1.0919285717047,-1.17705965214988,0.832723223878044,1.16103536693651,-2.57026708492642,0.343079804388929,0,0.79689181345378,1,0.29394200258633,-0.869594846267863,0.616740074295176
-0.132770806993376,1.63893672402673,0.345698580092718,-0.227814268356908,1.16682339586798,0.491707673773432,-0.856340036028832,-1.18324192203709,-0.283811733717882,0.209184641366228,-0.320811772274738,1.43649360989401,0.623767083014269,0.00138668826249305,0.467864118509144,-0.858234344093156,0.0282913973468195,-0.897449987118865,-1.2178798985148,0.560471765533997,-0.710972331124605,-1.74417347161636,0.73262302801402,1.39756497444081,0.873992126277709,-0.676948143306592,-0.397613008974815,-0.000627913528038761,1.7219251647713,0.99568954096122,0,1.33610163440645,1,0.235848123788355,1.06286520504874,0.342406832032464
0.515157421638459,0.0993183256801931,-1.23763810087306,1.12789648924143,0.255335075215061,2.22596049506964,-0.174687024619182,0.451941143329141,-2.36451715722861,-0.392614084105544,2.18912338050091,-0.432506525989454,0.241590223503871,2.21083985920474,-1.09982113509512,-2.15499351172314,1.10947131044526,-1.16227070683326,0.339872687189842,-2.31261569065906,0.464419679118296,-0.783279682932792,-1.32143610550751,-0.13048821393364,-2.29746579383506,0.481637869897885,-0.738587823190648,-0.462875237610811,-0.287917108017994,-0.141131965584461,0,-1.16441829916896,0,-3.05040141054496,-1.68831406882874,0.0454415841260166
-0.425356664811622,-1.78966196366042,-0.471878299838794,0.703438476574316,-0.512229628871769,-0.0562055631605196,0.139256997770211,-1.1814873370576,0.477389542202697,-1.29277926014065,2.35332356966094,-0.0994424773683993,-0.633149616576816,0.713589522356872,-1.95049170414942,0.525606988595987,0.987433374012886,1.6682429543612,0.345393647587481,0.396518542962835,2.06542187595387,1.92517100770148,-0.264870300735293,-0.928442936708455,0.728301683856279,1.05661067894222,0.86852239422925,-0.891915358682541,-1.40859103768425,0.128068426176828,0,0.375594449249285,0,-0.279592463623538,-1.99347255902309,0.453347621814239
-0.998520943227534,-0.958246071357333,-1.25028723132138,0.88466339012612,0.752700182829257,-0.755130004325759,-0.726818554320527,-1.56448728477769,0.0344283388808097,0.854791222617246,0.545001624660062,1.0900334370761,1.42586172280478,-0.537787423967292,0.129771972748164,1.37823997119607,-0.103054376893674,0.780869878116482,-1.01828439943542,0.509262900388078,0.111654397406665,0.921024555809417,-0.792401667156011,0.553846074893091,0.827748094464753,0.666873023651395,0.424497720440402,1.30269579103527,-1.17401089497869,-0.167103482259997,0.129364947416833,0.97359134506175,1,0.436680348577833,-0.0475289621783659,0.571510842805755
0.261011489561933,-0.0708238243190179,-0.553972239456031,-0.337036776083856,0.57138683473359,-0.0145036021166465,1.54711767084062,-0.154623385463485,0.624966514162535,-0.449363934702583,-1.55902836559933,-1.63875488367738,-0.543284871312302,-0.260243452899476,-2.40609253491643,-0.202888107148068,-0.285702517777006,-0.89511027730791,1.24438297560431,-0.293251180025088,0.412399918721332,-0.416424448993449,-1.11434993050239,-0.814864203255351,0.0599321129871004,0.204537755298872,-0.184327844964479,-0.00934265876140359,-1.11951424144161,-0.633312322821988,0,1.51068892416858,0,-1.44973298151419,-0.118623858745948,0.139367837916082
0.942444985331089,0.25944630434007,0.104109073395867,-0.0233784270576234,0.0675032214364454,0.529799747983892,1.74294163057422,0.446178055430318,-0.862268430694284,-0.630285255394892,1.03967579894483,-0.806803809520583,-1.00530514470266,-0.182048756748523,-2.18650625078203,0.00620445207884838,-0.442963431300109,-0.466366962471828,-0.927010962800565,-1.25523710472447,0.689318002595054,-1.70168537585969,1.24498547946929,0.966830081636471,0.328361902364644,-0.279882742746333,0.30132135477074,-1.4560175563026,0.501873547780675,0.767525956561269,0,0.768014325154777,0,-1.24341900918875,-3.18422518843632,0.0826124520516939
-0.0571032539847358,1.46611026139902,-1.2312537051655,0.122406186034884,1.26026849415787,-2.32767344364142,-0.895283425321415,-0.528189139664309,-0.767694969703855,0.742554181421475,0.523519494900596,0.993750919675986,0.847358825948659,-1.14727585140064,1.7749220431303,1.00734872757696,0.561092557993619,0.463883044050697,0.478664581120673,0.552850596207535,0.493578106782663,1.42063197957597,0.477040959694126,-2.0248397155791,0.730296083607512,1.61613838760701,0.754454071331972,1.13729495271245,-1.86339755460714,-0.0233842397894803,0,1.6945372832724,1,0.949765995804136,-0.0648406478401876,0.755133692771272
-0.422836178087186,1.88716027967326,1.076557255537,0.371906723128042,-0.277324176675146,-0.626118952704312,0.473207303052151,-1.36716615715949,0.0336420921929264,0.250935558399459,-0.658285261305397,-0.176129765803421,-0.935625778382734,-0.519937103436961,-0.968927372944154,1.8969286997065,-0.00925589749799651,1.82616490513627,-0.71662208667166,-1.86904584046975,0.629261335848192,0.39285459711827,2.81140873374175,-0.557569697835056,-0.959893053394411,1.31615050289666,-2.14683494333361,-0.0500300297756533,1.27311604805712,-1.25386952374178,0,1.11735283172047,0,-0.162894016608636,0.708355629758378,0.271181938634263
-1.61764843906699,-1.29383965261057,-0.769016585070153,-0.742313586426045,-1.53068259540169,1.50544075598903,-0.21941961479558,-0.141306698467594,-0.822884958210382,0.0908736960941935,0.638896669865829,-0.803386879545036,-2.26624759286706,0.221219979148845,-0.158508988881205,-0.596611884908819,-0.459351877920289,-0.845042874964743,-0.443972605910891,-3.04793129864783,-0.155338569668234,-0.640457623877553,0.906377129796141,0.996060896222786,-2.46244133011305,0.487160959716264,-1.0230587761963,-1.99767670369297,2.51911746806115,0.842145827960076,0,-2.48538092555962,0,-5.29924829670166,-0.777975472466518,0.0193657123326339
0.901772690633083,2.34442648858239,-1.96146160219452,0.245940898512479,-0.140489827901839,0.728512984306991,-1.88584442963947,0.258483719288562,-0.467652602810793,-0.869942589156327,0.811025339247035,0.490836140938087,-1.24684512153197,0.195648926582852,1.87712130756795,-0.635081676408977,0.607873629201875,-1.38169558653528,-0.637318908051722,1.26992544412595,-0.820715795704104,-1.13711875826236,-1.32584850387171,0.0226260872864094,-3.48132501149552,0.0771632773942814,-1.47054676973104,-0.394530032232869,-0.18072779407065,1.8301810146017,0,-0.222401818910519,0,-2.28907466315166,-1.06134609005134,0.0456453165790435
0.871579921358095,0.282866169056642,-0.469374506903058,0.454313324370706,1.03430255184705,-0.666794078952147,0.518876795425125,2.25426526808796,0.206814310914433,-0.470014566328015,0.13019383842156,-1.16409273699028,-0.807323691321111,1.11661147262321,0.770790025375144,-0.440748165179488,0.766381724114395,1.95109907821253,0.14341441217675,-0.948532770513328,0.538524864589617,0.199469637331273,1.19252048048342,0.0785310247711933,-0.538310738633643,-1.42633367336795,1.38391542695092,0.336523925698994,-1.5991543371142,1.0073835665008,0.39146714625198,-0.257993525580572,1,0.182521953103071,0.587622205099639,0.589019493352692
0.340697458039021,-0.746741575537388,0.899264182591427,-1.2302379921966,-0.786984852745712,0.117091052130418,-1.46562644546254,0.200322720316456,-0.646278460691055,-0.812046622721719,-0.427174465140118,0.88096088901745,-0.157598784775351,-0.00937107880924339,1.65566407521951,-0.954502560761721,0.984306800701153,-0.0927708132360265,0.694236869952034,1.97630051351083,-1.07559639126454,0.153667054872882,0.0101692542696996,0.0800232698986566,0.726798843066117,-0.524011470385252,3.70128733231487,-0.0424558181913849,-0.434624792070368,-0.178516984963656,0,1.80143106781701,0,-2.8071837642494,-2.33419090402686,0.0612454331842579
0.155630111188401,1.49313741640456,0.775173508526152,1.32986265596952,1.97666895187336,-1.84339958380997,0.701568896610312,0.5619899736942,-0.98608070374772,-0.0026828242452652,0.993527288024849,0.362752347337903,0.851696746234633,0.10046106782513,0.530549136873175,0.86163829688609,-0.366072830690814,0.268910193177164,-0.10063536073356,-0.419547328985769,0.0998667997506186,-1.66917491685651,-0.704377726071752,-1.06545154708836,-0.797994159026268,1.41774852125968,-0.988896198283211,-0.527984866707196,0.414773489830003,0.158612989661174,0.255772644421673,1.54718465177371,1,0.0716036460308799,0.167566771224804,0.510154016666704
-0.135144635093876,-0.798914711661544,0.832358785094044,-1.01697926672681,-1.67887217310479,-0.385114814894015,-1.23367695459068,-0.854264459091739,1.14073742060274,-0.841165044240561,-0.864000571732734,-0.138663279426368,-1.69229786265896,1.50448587929068,-1.9646711834713,2.7399679986307,-0.596295933452313,2.91672901022636,-2.67379154116328,-1.28012348681817,0.460424816789306,1.08766336491104,1.64925260170505,2.21323514509758,0.74838694356549,0.405658582158501,-1.46064854386765,-0.368379723287633,-0.530907759473682,-0.399153177924137,0.000152370894149156,0.175552448458191,1,-1.64848876012022,0.326311402312765,0.327408901201443
0.853121312904796,-0.543357324561674,-0.160289700263351,0.439380493828309,0.265988599246801,0.495769356567506,0.235123762389666,-0.831226428532598,-1.39953733089418,1.02290910361234,0.351299801260935,0.417463751170014,1.28452124774464,-0.198327743095203,-1.22908130375654,0.464202819754263,-0.030777163463836,-0.661742861770096,-0.153943792798804,-0.0200816367100235,0.947720206259911,1.01568893579087,0.986739055973603,-0.00583585994522125,0.610905692102921,1.68148197673425,-0.321339926072074,0.824497937134469,-0.468292974913158,-1.08008329684002,0,-0.70324456570909,0,-0.442906092513852,0.181981451974466,0.295744344382752
1.7695062820604,-0.750675413421387,-0.837219797566657,-1.21902410681006,-0.990327283406471,1.96859559281514,-1.65814289085648,1.59008472055277,-1.16326965421537,-1.13835387334695,1.02399674731814,-1.71057350772011,-1.8222324829705,1.95778665309971,0.686457193380177,-1.42888089524194,0.536636732499431,-2.27166669441758,-0.251596940735014,-0.993785463488,-0.747610745983281,-0.722533643604842,-0.42930833727926,1.75848761804753,-2.43462520356153,-1.3267712137383,0.58444285590172,-0.648716449356163,-1.29633483785696,1.16643097465506,0,0.0492348052760236,0,-5.72459746804423,-1.04389188275677,0.0105025254775463
-0.045593899371221,-1.69322085455921,-0.0178446815743054,1.13485957538909,-0.0800942148547778,0.478338460285271,0.535999993404185,0.586915299815915,0.63776611788639,-0.76157886356762,0.821268784809447,0.593286105251741,0.587854699940608,0.522718363329482,0.0681388434738684,-1.69176558255717,1.19813714367449,1.1086463998144,-0.252280891847227,0.40348109823405,0.66954674693125,0.816392729917242,-0.902240753962108,-0.878190644004361,0.373966116936192,-0.278864856097549,0.557733181110611,-0.379940304632709,-0.264016225487478,0.739454915388483,0.374677142825681,1.06756576675658,1,0.487620231250947,-1.99829660073268,0.630657162153857
-0.328122552255015,0.778348508356763,-0.490685945543484,0.743224928343911,0.542823754163075,0.93796930471175,-1.56015667630813,0.149659990625755,-0.790631545277444,0.0343313290504922,0.395336398828154,1.04907327610701,-0.673589964397359,-0.013189958877533,0.233475412510168,1.75929530342529,-0.728495817194564,1.25427006955941,-1.9864706490892,-0.111460309867577,0.0670391559615729,1.15295532518861,0.823045776975205,2.39301171375867,-0.749158472716196,-0.484659850653465,0.381223859725105,1.62031698052977,-0.770698135179607,1.08949648806868,0,0.490387449492785,0,-0.212501423104658,-3.26846933087985,0.287663276183308
-0.666963592421318,0.775131307907103,-0.0911669567155416,-0.822992817130693,0.65160461194027,0.0220428382821684,0.755945437199393,-0.475586527180516,-0.116141775622022,1.38467034259478,-0.526261428744574,0.442861892557531,1.6738674241054,-2.21472862763023,1.00986148924455,-0.213096349779364,0.00970820876465732,-1.1234305724775,0.398201105860806,0.668474652317927,0.49047239253947,0.0536360834920198,1.08348235674972,-1.00939036915505,0.67228887769156,0.43867424705533,0.223054180677433,1.23988235320712,1.27713164900883,-0.00162565689516428,0.521847735877345,1.33742725602738,1,1.67454284558182,0.223633685069359,0.8300701914612
-1.68786585952012,-0.61746157225948,-1.26789040150324,0.346280157388863,0.30585579068725,-0.00833908554357099,-1.04514331311428,0.670500563478847,0.0899892905216698,0.0833792543386605,-0.967592065346741,0.454121407786034,0.0881761445166669,0.959826861685219,1.66995985671621,0.185894310191796,-0.948596689372886,1.63886953275001,-1.20027300965617,-1.09124367415303,1.10565701987339,0.642892849134437,0.301973021562588,0.346274361510601,-0.585135090999775,0.527321016882761,1.03900785585621,1.08660871165159,-0.755112419797489,0.0786527275984017,0,1.26075623992623,0,-0.758745724976167,-2.53979101095566,0.380863369482598
0.443124602502384,-0.00804180495091117,-0.512793687401941,-0.947116338258424,-0.993723023013462,1.56785352480874,-1.36082517169301,-0.879036373680545,-3.10621419323313,-0.997560052810556,1.41391936087154,-0.486151439003228,0.199761052425773,2.71268561307527,-0.974900525610954,0.671703766658335,0.321268432123542,0.629463023563835,-2.62394701917095,-0.945041797617215,0.211631279939074,0.564250417170418,-0.686420036478059,2.1872080406553,-2.07702101944204,1.78513831505925,-0.185480016427144,0.372429219142964,0.528009435573817,0.817198553004217,0,0.311036913528876,0,-3.24029715072706,-1.95016501333397,0.0481675044854005
0.0341070990376769,-1.2882001755177,0.0872609801275642,-0.618164293638753,-1.74267659813931,0.757105216717972,0.028353325967232,0.0327188934969164,1.32656883343329,0.613218928974645,-0.287176117390316,-1.41286982696786,-0.130248136639606,0.583858646711334,-0.15312575481359,0.0928367027497861,-0.192931974084,-0.669555117733635,-0.674247423599486,-1.00314765750355,0.019262329908066,1.05879287922913,1.86867791483467,0.440857795044601,-0.413040357751246,-0.635396069010236,-1.18637786569145,0.345061892000832,1.12262653601924,-0.502786373443942,0,1.11556856514275,0,-1.69568999297408,-2.20840175485904,0.230813784057177
-0.471129353052536,-0.595700803957053,-2.01165440054708,-1.05306938972877,0.489527674085816,-1.58183949254835,-0.407133531774482,-1.8012874640713,1.07581126927273,0.589360264424101,-0.835955310908306,0.973913792634185,-0.0269934275154349,-2.1114524124644,-0.403642972969064,2.53095990620257,-0.934111055793165,1.85953641338585,-1.30248898424727,1.03702220219419,1.9839627815463,2.06123426524458,1.38894058491493,0.491804449265637,2.48461483031179,-0.294086247146283,-0.780524536914507,1.74125004156105,0.157904605056099,0.319729062417548,0.0741971946366958,-1.16501654739942,1,2.65579596688512,-2.18981166761448,0.875223742637274
